digraph Tree {
node [shape=box, style="filled, rounded", color="black", fontname=helvetica] ;
edge [fontname=helvetica] ;
0 [label="loudness <= -7.882\ngini = 0.443\nsamples = 11939\nvalue = [7977, 3962]\nclass = good", fillcolor="#f2c09b"] ;
1 [label="danceability <= 174325.0\ngini = 0.397\nsamples = 4450\nvalue = [3235, 1215]\nclass = good", fillcolor="#efb083"] ;
0 -> 1 [labeldistance=2.5, labelangle=45, headlabel="True"] ;
2 [label="key <= 0.087\ngini = 0.324\nsamples = 1161\nvalue = [925, 236]\nclass = good", fillcolor="#eca16c"] ;
1 -> 2 ;
3 [label="energy <= 0.952\ngini = 0.496\nsamples = 75\nvalue = [34, 41]\nclass = bad", fillcolor="#ddeefb"] ;
2 -> 3 ;
4 [label="key <= 0.081\ngini = 0.408\nsamples = 21\nvalue = [15, 6]\nclass = good", fillcolor="#efb388"] ;
3 -> 4 ;
5 [label="speechiness <= 124.094\ngini = 0.278\nsamples = 18\nvalue = [15, 3]\nclass = good", fillcolor="#ea9a61"] ;
4 -> 5 ;
6 [label="danceability <= 164886.5\ngini = 0.124\nsamples = 15\nvalue = [14, 1]\nclass = good", fillcolor="#e78a47"] ;
5 -> 6 ;
7 [label="gini = 0.0\nsamples = 13\nvalue = [13, 0]\nclass = good", fillcolor="#e58139"] ;
6 -> 7 ;
8 [label="loudness <= -21.295\ngini = 0.5\nsamples = 2\nvalue = [1, 1]\nclass = good", fillcolor="#ffffff"] ;
6 -> 8 ;
9 [label="gini = 0.0\nsamples = 1\nvalue = [1, 0]\nclass = good", fillcolor="#e58139"] ;
8 -> 9 ;
10 [label="gini = 0.0\nsamples = 1\nvalue = [0, 1]\nclass = bad", fillcolor="#399de5"] ;
8 -> 10 ;
11 [label="energy <= 0.918\ngini = 0.444\nsamples = 3\nvalue = [1, 2]\nclass = bad", fillcolor="#9ccef2"] ;
5 -> 11 ;
12 [label="gini = 0.0\nsamples = 2\nvalue = [0, 2]\nclass = bad", fillcolor="#399de5"] ;
11 -> 12 ;
13 [label="gini = 0.0\nsamples = 1\nvalue = [1, 0]\nclass = good", fillcolor="#e58139"] ;
11 -> 13 ;
14 [label="gini = 0.0\nsamples = 3\nvalue = [0, 3]\nclass = bad", fillcolor="#399de5"] ;
4 -> 14 ;
15 [label="acousticness <= 3.5\ngini = 0.456\nsamples = 54\nvalue = [19, 35]\nclass = bad", fillcolor="#a4d2f3"] ;
3 -> 15 ;
16 [label="energy <= 0.995\ngini = 0.124\nsamples = 15\nvalue = [1, 14]\nclass = bad", fillcolor="#47a4e7"] ;
15 -> 16 ;
17 [label="gini = 0.0\nsamples = 12\nvalue = [0, 12]\nclass = bad", fillcolor="#399de5"] ;
16 -> 17 ;
18 [label="tempo <= 0.24\ngini = 0.444\nsamples = 3\nvalue = [1, 2]\nclass = bad", fillcolor="#9ccef2"] ;
16 -> 18 ;
19 [label="gini = 0.0\nsamples = 1\nvalue = [1, 0]\nclass = good", fillcolor="#e58139"] ;
18 -> 19 ;
20 [label="gini = 0.0\nsamples = 2\nvalue = [0, 2]\nclass = bad", fillcolor="#399de5"] ;
18 -> 20 ;
21 [label="liveness <= 0.085\ngini = 0.497\nsamples = 39\nvalue = [18, 21]\nclass = bad", fillcolor="#e3f1fb"] ;
15 -> 21 ;
22 [label="gini = 0.0\nsamples = 5\nvalue = [5, 0]\nclass = good", fillcolor="#e58139"] ;
21 -> 22 ;
23 [label="danceability <= 166405.0\ngini = 0.472\nsamples = 34\nvalue = [13, 21]\nclass = bad", fillcolor="#b4daf5"] ;
21 -> 23 ;
24 [label="liveness <= 0.151\ngini = 0.42\nsamples = 30\nvalue = [9, 21]\nclass = bad", fillcolor="#8ec7f0"] ;
23 -> 24 ;
25 [label="song_popularity <= 1.5\ngini = 0.375\nsamples = 28\nvalue = [7, 21]\nclass = bad", fillcolor="#7bbeee"] ;
24 -> 25 ;
26 [label="key <= 0.028\ngini = 0.375\nsamples = 4\nvalue = [3, 1]\nclass = good", fillcolor="#eeab7b"] ;
25 -> 26 ;
27 [label="gini = 0.0\nsamples = 1\nvalue = [0, 1]\nclass = bad", fillcolor="#399de5"] ;
26 -> 27 ;
28 [label="gini = 0.0\nsamples = 3\nvalue = [3, 0]\nclass = good", fillcolor="#e58139"] ;
26 -> 28 ;
29 [label="speechiness <= 61.92\ngini = 0.278\nsamples = 24\nvalue = [4, 20]\nclass = bad", fillcolor="#61b1ea"] ;
25 -> 29 ;
30 [label="gini = 0.0\nsamples = 1\nvalue = [1, 0]\nclass = good", fillcolor="#e58139"] ;
29 -> 30 ;
31 [label="danceability <= 143629.5\ngini = 0.227\nsamples = 23\nvalue = [3, 20]\nclass = bad", fillcolor="#57ace9"] ;
29 -> 31 ;
32 [label="gini = 0.0\nsamples = 12\nvalue = [0, 12]\nclass = bad", fillcolor="#399de5"] ;
31 -> 32 ;
33 [label="tempo <= 0.086\ngini = 0.397\nsamples = 11\nvalue = [3, 8]\nclass = bad", fillcolor="#83c2ef"] ;
31 -> 33 ;
34 [label="mode <= 0.044\ngini = 0.444\nsamples = 3\nvalue = [2, 1]\nclass = good", fillcolor="#f2c09c"] ;
33 -> 34 ;
35 [label="gini = 0.0\nsamples = 1\nvalue = [0, 1]\nclass = bad", fillcolor="#399de5"] ;
34 -> 35 ;
36 [label="gini = 0.0\nsamples = 2\nvalue = [2, 0]\nclass = good", fillcolor="#e58139"] ;
34 -> 36 ;
37 [label="danceability <= 151065.5\ngini = 0.219\nsamples = 8\nvalue = [1, 7]\nclass = bad", fillcolor="#55abe9"] ;
33 -> 37 ;
38 [label="speechiness <= 77.342\ngini = 0.444\nsamples = 3\nvalue = [1, 2]\nclass = bad", fillcolor="#9ccef2"] ;
37 -> 38 ;
39 [label="gini = 0.0\nsamples = 1\nvalue = [1, 0]\nclass = good", fillcolor="#e58139"] ;
38 -> 39 ;
40 [label="gini = 0.0\nsamples = 2\nvalue = [0, 2]\nclass = bad", fillcolor="#399de5"] ;
38 -> 40 ;
41 [label="gini = 0.0\nsamples = 5\nvalue = [0, 5]\nclass = bad", fillcolor="#399de5"] ;
37 -> 41 ;
42 [label="gini = 0.0\nsamples = 2\nvalue = [2, 0]\nclass = good", fillcolor="#e58139"] ;
24 -> 42 ;
43 [label="gini = 0.0\nsamples = 4\nvalue = [4, 0]\nclass = good", fillcolor="#e58139"] ;
23 -> 43 ;
44 [label="danceability <= 112793.0\ngini = 0.295\nsamples = 1086\nvalue = [891, 195]\nclass = good", fillcolor="#eb9d64"] ;
2 -> 44 ;
45 [label="instrumentalness <= 0.833\ngini = 0.132\nsamples = 155\nvalue = [144, 11]\nclass = good", fillcolor="#e78b48"] ;
44 -> 45 ;
46 [label="energy <= 0.995\ngini = 0.081\nsamples = 141\nvalue = [135, 6]\nclass = good", fillcolor="#e68742"] ;
45 -> 46 ;
47 [label="key <= 0.098\ngini = 0.069\nsamples = 140\nvalue = [135, 5]\nclass = good", fillcolor="#e68640"] ;
46 -> 47 ;
48 [label="gini = 0.0\nsamples = 1\nvalue = [0, 1]\nclass = bad", fillcolor="#399de5"] ;
47 -> 48 ;
49 [label="acousticness <= 2.0\ngini = 0.056\nsamples = 139\nvalue = [135, 4]\nclass = good", fillcolor="#e6853f"] ;
47 -> 49 ;
50 [label="liveness <= 0.124\ngini = 0.375\nsamples = 4\nvalue = [3, 1]\nclass = good", fillcolor="#eeab7b"] ;
49 -> 50 ;
51 [label="gini = 0.0\nsamples = 1\nvalue = [0, 1]\nclass = bad", fillcolor="#399de5"] ;
50 -> 51 ;
52 [label="gini = 0.0\nsamples = 3\nvalue = [3, 0]\nclass = good", fillcolor="#e58139"] ;
50 -> 52 ;
53 [label="tempo <= 0.911\ngini = 0.043\nsamples = 135\nvalue = [132, 3]\nclass = good", fillcolor="#e6843d"] ;
49 -> 53 ;
54 [label="energy <= 0.852\ngini = 0.031\nsamples = 128\nvalue = [126, 2]\nclass = good", fillcolor="#e5833c"] ;
53 -> 54 ;
55 [label="gini = 0.0\nsamples = 85\nvalue = [85, 0]\nclass = good", fillcolor="#e58139"] ;
54 -> 55 ;
56 [label="energy <= 0.853\ngini = 0.089\nsamples = 43\nvalue = [41, 2]\nclass = good", fillcolor="#e68743"] ;
54 -> 56 ;
57 [label="gini = 0.0\nsamples = 1\nvalue = [0, 1]\nclass = bad", fillcolor="#399de5"] ;
56 -> 57 ;
58 [label="tempo <= 0.151\ngini = 0.046\nsamples = 42\nvalue = [41, 1]\nclass = good", fillcolor="#e6843e"] ;
56 -> 58 ;
59 [label="tempo <= 0.143\ngini = 0.245\nsamples = 7\nvalue = [6, 1]\nclass = good", fillcolor="#e9965a"] ;
58 -> 59 ;
60 [label="gini = 0.0\nsamples = 6\nvalue = [6, 0]\nclass = good", fillcolor="#e58139"] ;
59 -> 60 ;
61 [label="gini = 0.0\nsamples = 1\nvalue = [0, 1]\nclass = bad", fillcolor="#399de5"] ;
59 -> 61 ;
62 [label="gini = 0.0\nsamples = 35\nvalue = [35, 0]\nclass = good", fillcolor="#e58139"] ;
58 -> 62 ;
63 [label="song_popularity <= 9.0\ngini = 0.245\nsamples = 7\nvalue = [6, 1]\nclass = good", fillcolor="#e9965a"] ;
53 -> 63 ;
64 [label="gini = 0.0\nsamples = 6\nvalue = [6, 0]\nclass = good", fillcolor="#e58139"] ;
63 -> 64 ;
65 [label="gini = 0.0\nsamples = 1\nvalue = [0, 1]\nclass = bad", fillcolor="#399de5"] ;
63 -> 65 ;
66 [label="gini = 0.0\nsamples = 1\nvalue = [0, 1]\nclass = bad", fillcolor="#399de5"] ;
46 -> 66 ;
67 [label="mode <= 0.219\ngini = 0.459\nsamples = 14\nvalue = [9, 5]\nclass = good", fillcolor="#f3c7a7"] ;
45 -> 67 ;
68 [label="mode <= 0.067\ngini = 0.219\nsamples = 8\nvalue = [7, 1]\nclass = good", fillcolor="#e99355"] ;
67 -> 68 ;
69 [label="gini = 0.0\nsamples = 1\nvalue = [0, 1]\nclass = bad", fillcolor="#399de5"] ;
68 -> 69 ;
70 [label="gini = 0.0\nsamples = 7\nvalue = [7, 0]\nclass = good", fillcolor="#e58139"] ;
68 -> 70 ;
71 [label="mode <= 0.372\ngini = 0.444\nsamples = 6\nvalue = [2, 4]\nclass = bad", fillcolor="#9ccef2"] ;
67 -> 71 ;
72 [label="gini = 0.0\nsamples = 3\nvalue = [0, 3]\nclass = bad", fillcolor="#399de5"] ;
71 -> 72 ;
73 [label="liveness <= 0.086\ngini = 0.444\nsamples = 3\nvalue = [2, 1]\nclass = good", fillcolor="#f2c09c"] ;
71 -> 73 ;
74 [label="gini = 0.0\nsamples = 1\nvalue = [0, 1]\nclass = bad", fillcolor="#399de5"] ;
73 -> 74 ;
75 [label="gini = 0.0\nsamples = 2\nvalue = [2, 0]\nclass = good", fillcolor="#e58139"] ;
73 -> 75 ;
76 [label="energy <= 0.307\ngini = 0.317\nsamples = 931\nvalue = [747, 184]\nclass = good", fillcolor="#eba06a"] ;
44 -> 76 ;
77 [label="speechiness <= 92.07\ngini = 0.396\nsamples = 283\nvalue = [206, 77]\nclass = good", fillcolor="#efb083"] ;
76 -> 77 ;
78 [label="mode <= 0.027\ngini = 0.187\nsamples = 48\nvalue = [43, 5]\nclass = good", fillcolor="#e89050"] ;
77 -> 78 ;
79 [label="gini = 0.0\nsamples = 1\nvalue = [0, 1]\nclass = bad", fillcolor="#399de5"] ;
78 -> 79 ;
80 [label="liveness <= 0.34\ngini = 0.156\nsamples = 47\nvalue = [43, 4]\nclass = good", fillcolor="#e78d4b"] ;
78 -> 80 ;
81 [label="speechiness <= 75.754\ngini = 0.089\nsamples = 43\nvalue = [41, 2]\nclass = good", fillcolor="#e68743"] ;
80 -> 81 ;
82 [label="acousticness <= 2.5\ngini = 0.5\nsamples = 2\nvalue = [1, 1]\nclass = good", fillcolor="#ffffff"] ;
81 -> 82 ;
83 [label="gini = 0.0\nsamples = 1\nvalue = [1, 0]\nclass = good", fillcolor="#e58139"] ;
82 -> 83 ;
84 [label="gini = 0.0\nsamples = 1\nvalue = [0, 1]\nclass = bad", fillcolor="#399de5"] ;
82 -> 84 ;
85 [label="loudness <= -8.438\ngini = 0.048\nsamples = 41\nvalue = [40, 1]\nclass = good", fillcolor="#e6843e"] ;
81 -> 85 ;
86 [label="gini = 0.0\nsamples = 35\nvalue = [35, 0]\nclass = good", fillcolor="#e58139"] ;
85 -> 86 ;
87 [label="loudness <= -8.299\ngini = 0.278\nsamples = 6\nvalue = [5, 1]\nclass = good", fillcolor="#ea9a61"] ;
85 -> 87 ;
88 [label="gini = 0.0\nsamples = 1\nvalue = [0, 1]\nclass = bad", fillcolor="#399de5"] ;
87 -> 88 ;
89 [label="gini = 0.0\nsamples = 5\nvalue = [5, 0]\nclass = good", fillcolor="#e58139"] ;
87 -> 89 ;
90 [label="mode <= 0.224\ngini = 0.5\nsamples = 4\nvalue = [2, 2]\nclass = good", fillcolor="#ffffff"] ;
80 -> 90 ;
91 [label="gini = 0.0\nsamples = 2\nvalue = [0, 2]\nclass = bad", fillcolor="#399de5"] ;
90 -> 91 ;
92 [label="gini = 0.0\nsamples = 2\nvalue = [2, 0]\nclass = good", fillcolor="#e58139"] ;
90 -> 92 ;
93 [label="speechiness <= 129.135\ngini = 0.425\nsamples = 235\nvalue = [163, 72]\nclass = good", fillcolor="#f0b990"] ;
77 -> 93 ;
94 [label="song_popularity <= 9.5\ngini = 0.477\nsamples = 125\nvalue = [76, 49]\nclass = good", fillcolor="#f6d2b9"] ;
93 -> 94 ;
95 [label="loudness <= -9.331\ngini = 0.458\nsamples = 110\nvalue = [71, 39]\nclass = good", fillcolor="#f3c6a6"] ;
94 -> 95 ;
96 [label="tempo <= 0.787\ngini = 0.366\nsamples = 54\nvalue = [41, 13]\nclass = good", fillcolor="#eda978"] ;
95 -> 96 ;
97 [label="energy <= 0.024\ngini = 0.17\nsamples = 32\nvalue = [29, 3]\nclass = good", fillcolor="#e88e4d"] ;
96 -> 97 ;
98 [label="song_popularity <= 1.5\ngini = 0.5\nsamples = 6\nvalue = [3, 3]\nclass = good", fillcolor="#ffffff"] ;
97 -> 98 ;
99 [label="gini = 0.0\nsamples = 3\nvalue = [0, 3]\nclass = bad", fillcolor="#399de5"] ;
98 -> 99 ;
100 [label="gini = 0.0\nsamples = 3\nvalue = [3, 0]\nclass = good", fillcolor="#e58139"] ;
98 -> 100 ;
101 [label="gini = 0.0\nsamples = 26\nvalue = [26, 0]\nclass = good", fillcolor="#e58139"] ;
97 -> 101 ;
102 [label="instrumentalness <= 0.727\ngini = 0.496\nsamples = 22\nvalue = [12, 10]\nclass = good", fillcolor="#fbeade"] ;
96 -> 102 ;
103 [label="energy <= 0.255\ngini = 0.473\nsamples = 13\nvalue = [5, 8]\nclass = bad", fillcolor="#b5daf5"] ;
102 -> 103 ;
104 [label="tempo <= 0.886\ngini = 0.397\nsamples = 11\nvalue = [3, 8]\nclass = bad", fillcolor="#83c2ef"] ;
103 -> 104 ;
105 [label="danceability <= 169986.5\ngini = 0.48\nsamples = 5\nvalue = [3, 2]\nclass = good", fillcolor="#f6d5bd"] ;
104 -> 105 ;
106 [label="key <= 0.511\ngini = 0.444\nsamples = 3\nvalue = [1, 2]\nclass = bad", fillcolor="#9ccef2"] ;
105 -> 106 ;
107 [label="gini = 0.0\nsamples = 1\nvalue = [1, 0]\nclass = good", fillcolor="#e58139"] ;
106 -> 107 ;
108 [label="gini = 0.0\nsamples = 2\nvalue = [0, 2]\nclass = bad", fillcolor="#399de5"] ;
106 -> 108 ;
109 [label="gini = 0.0\nsamples = 2\nvalue = [2, 0]\nclass = good", fillcolor="#e58139"] ;
105 -> 109 ;
110 [label="gini = 0.0\nsamples = 6\nvalue = [0, 6]\nclass = bad", fillcolor="#399de5"] ;
104 -> 110 ;
111 [label="gini = 0.0\nsamples = 2\nvalue = [2, 0]\nclass = good", fillcolor="#e58139"] ;
103 -> 111 ;
112 [label="speechiness <= 108.326\ngini = 0.346\nsamples = 9\nvalue = [7, 2]\nclass = good", fillcolor="#eca572"] ;
102 -> 112 ;
113 [label="gini = 0.0\nsamples = 1\nvalue = [0, 1]\nclass = bad", fillcolor="#399de5"] ;
112 -> 113 ;
114 [label="tempo <= 0.824\ngini = 0.219\nsamples = 8\nvalue = [7, 1]\nclass = good", fillcolor="#e99355"] ;
112 -> 114 ;
115 [label="gini = 0.0\nsamples = 1\nvalue = [0, 1]\nclass = bad", fillcolor="#399de5"] ;
114 -> 115 ;
116 [label="gini = 0.0\nsamples = 7\nvalue = [7, 0]\nclass = good", fillcolor="#e58139"] ;
114 -> 116 ;
117 [label="key <= 0.525\ngini = 0.497\nsamples = 56\nvalue = [30, 26]\nclass = good", fillcolor="#fceee5"] ;
95 -> 117 ;
118 [label="loudness <= -8.586\ngini = 0.444\nsamples = 21\nvalue = [7, 14]\nclass = bad", fillcolor="#9ccef2"] ;
117 -> 118 ;
119 [label="mode <= 0.401\ngini = 0.18\nsamples = 10\nvalue = [1, 9]\nclass = bad", fillcolor="#4fa8e8"] ;
118 -> 119 ;
120 [label="gini = 0.0\nsamples = 9\nvalue = [0, 9]\nclass = bad", fillcolor="#399de5"] ;
119 -> 120 ;
121 [label="gini = 0.0\nsamples = 1\nvalue = [1, 0]\nclass = good", fillcolor="#e58139"] ;
119 -> 121 ;
122 [label="duration <= 0.5\ngini = 0.496\nsamples = 11\nvalue = [6, 5]\nclass = good", fillcolor="#fbeade"] ;
118 -> 122 ;
123 [label="gini = 0.0\nsamples = 3\nvalue = [3, 0]\nclass = good", fillcolor="#e58139"] ;
122 -> 123 ;
124 [label="mode <= 0.137\ngini = 0.469\nsamples = 8\nvalue = [3, 5]\nclass = bad", fillcolor="#b0d8f5"] ;
122 -> 124 ;
125 [label="key <= 0.498\ngini = 0.48\nsamples = 5\nvalue = [3, 2]\nclass = good", fillcolor="#f6d5bd"] ;
124 -> 125 ;
126 [label="gini = 0.0\nsamples = 2\nvalue = [2, 0]\nclass = good", fillcolor="#e58139"] ;
125 -> 126 ;
127 [label="danceability <= 140930.0\ngini = 0.444\nsamples = 3\nvalue = [1, 2]\nclass = bad", fillcolor="#9ccef2"] ;
125 -> 127 ;
128 [label="gini = 0.0\nsamples = 1\nvalue = [1, 0]\nclass = good", fillcolor="#e58139"] ;
127 -> 128 ;
129 [label="gini = 0.0\nsamples = 2\nvalue = [0, 2]\nclass = bad", fillcolor="#399de5"] ;
127 -> 129 ;
130 [label="gini = 0.0\nsamples = 3\nvalue = [0, 3]\nclass = bad", fillcolor="#399de5"] ;
124 -> 130 ;
131 [label="energy <= 0.146\ngini = 0.451\nsamples = 35\nvalue = [23, 12]\nclass = good", fillcolor="#f3c3a0"] ;
117 -> 131 ;
132 [label="speechiness <= 98.178\ngini = 0.278\nsamples = 18\nvalue = [15, 3]\nclass = good", fillcolor="#ea9a61"] ;
131 -> 132 ;
133 [label="loudness <= -8.167\ngini = 0.444\nsamples = 3\nvalue = [1, 2]\nclass = bad", fillcolor="#9ccef2"] ;
132 -> 133 ;
134 [label="gini = 0.0\nsamples = 2\nvalue = [0, 2]\nclass = bad", fillcolor="#399de5"] ;
133 -> 134 ;
135 [label="gini = 0.0\nsamples = 1\nvalue = [1, 0]\nclass = good", fillcolor="#e58139"] ;
133 -> 135 ;
136 [label="liveness <= 0.382\ngini = 0.124\nsamples = 15\nvalue = [14, 1]\nclass = good", fillcolor="#e78a47"] ;
132 -> 136 ;
137 [label="gini = 0.0\nsamples = 13\nvalue = [13, 0]\nclass = good", fillcolor="#e58139"] ;
136 -> 137 ;
138 [label="mode <= 0.151\ngini = 0.5\nsamples = 2\nvalue = [1, 1]\nclass = good", fillcolor="#ffffff"] ;
136 -> 138 ;
139 [label="gini = 0.0\nsamples = 1\nvalue = [0, 1]\nclass = bad", fillcolor="#399de5"] ;
138 -> 139 ;
140 [label="gini = 0.0\nsamples = 1\nvalue = [1, 0]\nclass = good", fillcolor="#e58139"] ;
138 -> 140 ;
141 [label="song_popularity <= 2.5\ngini = 0.498\nsamples = 17\nvalue = [8, 9]\nclass = bad", fillcolor="#e9f4fc"] ;
131 -> 141 ;
142 [label="gini = 0.0\nsamples = 5\nvalue = [5, 0]\nclass = good", fillcolor="#e58139"] ;
141 -> 142 ;
143 [label="speechiness <= 93.868\ngini = 0.375\nsamples = 12\nvalue = [3, 9]\nclass = bad", fillcolor="#7bbeee"] ;
141 -> 143 ;
144 [label="gini = 0.0\nsamples = 2\nvalue = [2, 0]\nclass = good", fillcolor="#e58139"] ;
143 -> 144 ;
145 [label="key <= 0.547\ngini = 0.18\nsamples = 10\nvalue = [1, 9]\nclass = bad", fillcolor="#4fa8e8"] ;
143 -> 145 ;
146 [label="gini = 0.0\nsamples = 1\nvalue = [1, 0]\nclass = good", fillcolor="#e58139"] ;
145 -> 146 ;
147 [label="gini = 0.0\nsamples = 9\nvalue = [0, 9]\nclass = bad", fillcolor="#399de5"] ;
145 -> 147 ;
148 [label="energy <= 0.084\ngini = 0.444\nsamples = 15\nvalue = [5, 10]\nclass = bad", fillcolor="#9ccef2"] ;
94 -> 148 ;
149 [label="speechiness <= 98.67\ngini = 0.219\nsamples = 8\nvalue = [1, 7]\nclass = bad", fillcolor="#55abe9"] ;
148 -> 149 ;
150 [label="gini = 0.0\nsamples = 1\nvalue = [1, 0]\nclass = good", fillcolor="#e58139"] ;
149 -> 150 ;
151 [label="gini = 0.0\nsamples = 7\nvalue = [0, 7]\nclass = bad", fillcolor="#399de5"] ;
149 -> 151 ;
152 [label="liveness <= 0.115\ngini = 0.49\nsamples = 7\nvalue = [4, 3]\nclass = good", fillcolor="#f8e0ce"] ;
148 -> 152 ;
153 [label="gini = 0.0\nsamples = 3\nvalue = [0, 3]\nclass = bad", fillcolor="#399de5"] ;
152 -> 153 ;
154 [label="gini = 0.0\nsamples = 4\nvalue = [4, 0]\nclass = good", fillcolor="#e58139"] ;
152 -> 154 ;
155 [label="energy <= 0.294\ngini = 0.331\nsamples = 110\nvalue = [87, 23]\nclass = good", fillcolor="#eca26d"] ;
93 -> 155 ;
156 [label="speechiness <= 135.45\ngini = 0.313\nsamples = 108\nvalue = [87, 21]\nclass = good", fillcolor="#eb9f69"] ;
155 -> 156 ;
157 [label="gini = 0.0\nsamples = 20\nvalue = [20, 0]\nclass = good", fillcolor="#e58139"] ;
156 -> 157 ;
158 [label="speechiness <= 145.952\ngini = 0.363\nsamples = 88\nvalue = [67, 21]\nclass = good", fillcolor="#eda877"] ;
156 -> 158 ;
159 [label="instrumentalness <= 0.569\ngini = 0.478\nsamples = 38\nvalue = [23, 15]\nclass = good", fillcolor="#f6d3ba"] ;
158 -> 159 ;
160 [label="instrumentalness <= 0.373\ngini = 0.219\nsamples = 8\nvalue = [1, 7]\nclass = bad", fillcolor="#55abe9"] ;
159 -> 160 ;
161 [label="gini = 0.0\nsamples = 1\nvalue = [1, 0]\nclass = good", fillcolor="#e58139"] ;
160 -> 161 ;
162 [label="gini = 0.0\nsamples = 7\nvalue = [0, 7]\nclass = bad", fillcolor="#399de5"] ;
160 -> 162 ;
163 [label="loudness <= -9.744\ngini = 0.391\nsamples = 30\nvalue = [22, 8]\nclass = good", fillcolor="#eeaf81"] ;
159 -> 163 ;
164 [label="tempo <= 0.891\ngini = 0.111\nsamples = 17\nvalue = [16, 1]\nclass = good", fillcolor="#e78945"] ;
163 -> 164 ;
165 [label="gini = 0.0\nsamples = 16\nvalue = [16, 0]\nclass = good", fillcolor="#e58139"] ;
164 -> 165 ;
166 [label="gini = 0.0\nsamples = 1\nvalue = [0, 1]\nclass = bad", fillcolor="#399de5"] ;
164 -> 166 ;
167 [label="loudness <= -9.339\ngini = 0.497\nsamples = 13\nvalue = [6, 7]\nclass = bad", fillcolor="#e3f1fb"] ;
163 -> 167 ;
168 [label="gini = 0.0\nsamples = 5\nvalue = [0, 5]\nclass = bad", fillcolor="#399de5"] ;
167 -> 168 ;
169 [label="instrumentalness <= 0.748\ngini = 0.375\nsamples = 8\nvalue = [6, 2]\nclass = good", fillcolor="#eeab7b"] ;
167 -> 169 ;
170 [label="gini = 0.0\nsamples = 5\nvalue = [5, 0]\nclass = good", fillcolor="#e58139"] ;
169 -> 170 ;
171 [label="tempo <= 0.373\ngini = 0.444\nsamples = 3\nvalue = [1, 2]\nclass = bad", fillcolor="#9ccef2"] ;
169 -> 171 ;
172 [label="gini = 0.0\nsamples = 2\nvalue = [0, 2]\nclass = bad", fillcolor="#399de5"] ;
171 -> 172 ;
173 [label="gini = 0.0\nsamples = 1\nvalue = [1, 0]\nclass = good", fillcolor="#e58139"] ;
171 -> 173 ;
174 [label="loudness <= -9.76\ngini = 0.211\nsamples = 50\nvalue = [44, 6]\nclass = good", fillcolor="#e99254"] ;
158 -> 174 ;
175 [label="loudness <= -10.235\ngini = 0.32\nsamples = 25\nvalue = [20, 5]\nclass = good", fillcolor="#eca06a"] ;
174 -> 175 ;
176 [label="energy <= 0.02\ngini = 0.095\nsamples = 20\nvalue = [19, 1]\nclass = good", fillcolor="#e68843"] ;
175 -> 176 ;
177 [label="danceability <= 138086.0\ngini = 0.444\nsamples = 3\nvalue = [2, 1]\nclass = good", fillcolor="#f2c09c"] ;
176 -> 177 ;
178 [label="gini = 0.0\nsamples = 1\nvalue = [0, 1]\nclass = bad", fillcolor="#399de5"] ;
177 -> 178 ;
179 [label="gini = 0.0\nsamples = 2\nvalue = [2, 0]\nclass = good", fillcolor="#e58139"] ;
177 -> 179 ;
180 [label="gini = 0.0\nsamples = 17\nvalue = [17, 0]\nclass = good", fillcolor="#e58139"] ;
176 -> 180 ;
181 [label="energy <= 0.013\ngini = 0.32\nsamples = 5\nvalue = [1, 4]\nclass = bad", fillcolor="#6ab6ec"] ;
175 -> 181 ;
182 [label="gini = 0.0\nsamples = 1\nvalue = [1, 0]\nclass = good", fillcolor="#e58139"] ;
181 -> 182 ;
183 [label="gini = 0.0\nsamples = 4\nvalue = [0, 4]\nclass = bad", fillcolor="#399de5"] ;
181 -> 183 ;
184 [label="loudness <= -8.127\ngini = 0.077\nsamples = 25\nvalue = [24, 1]\nclass = good", fillcolor="#e68641"] ;
174 -> 184 ;
185 [label="gini = 0.0\nsamples = 20\nvalue = [20, 0]\nclass = good", fillcolor="#e58139"] ;
184 -> 185 ;
186 [label="loudness <= -8.104\ngini = 0.32\nsamples = 5\nvalue = [4, 1]\nclass = good", fillcolor="#eca06a"] ;
184 -> 186 ;
187 [label="gini = 0.0\nsamples = 1\nvalue = [0, 1]\nclass = bad", fillcolor="#399de5"] ;
186 -> 187 ;
188 [label="gini = 0.0\nsamples = 4\nvalue = [4, 0]\nclass = good", fillcolor="#e58139"] ;
186 -> 188 ;
189 [label="gini = 0.0\nsamples = 2\nvalue = [0, 2]\nclass = bad", fillcolor="#399de5"] ;
155 -> 189 ;
190 [label="liveness <= 0.134\ngini = 0.276\nsamples = 648\nvalue = [541, 107]\nclass = good", fillcolor="#ea9a60"] ;
76 -> 190 ;
191 [label="liveness <= 0.061\ngini = 0.338\nsamples = 372\nvalue = [292, 80]\nclass = good", fillcolor="#eca46f"] ;
190 -> 191 ;
192 [label="tempo <= 0.736\ngini = 0.5\nsamples = 18\nvalue = [9, 9]\nclass = good", fillcolor="#ffffff"] ;
191 -> 192 ;
193 [label="gini = 0.0\nsamples = 5\nvalue = [0, 5]\nclass = bad", fillcolor="#399de5"] ;
192 -> 193 ;
194 [label="danceability <= 155459.5\ngini = 0.426\nsamples = 13\nvalue = [9, 4]\nclass = good", fillcolor="#f1b991"] ;
192 -> 194 ;
195 [label="loudness <= -10.345\ngini = 0.444\nsamples = 6\nvalue = [2, 4]\nclass = bad", fillcolor="#9ccef2"] ;
194 -> 195 ;
196 [label="gini = 0.0\nsamples = 2\nvalue = [2, 0]\nclass = good", fillcolor="#e58139"] ;
195 -> 196 ;
197 [label="gini = 0.0\nsamples = 4\nvalue = [0, 4]\nclass = bad", fillcolor="#399de5"] ;
195 -> 197 ;
198 [label="gini = 0.0\nsamples = 7\nvalue = [7, 0]\nclass = good", fillcolor="#e58139"] ;
194 -> 198 ;
199 [label="speechiness <= 79.95\ngini = 0.321\nsamples = 354\nvalue = [283, 71]\nclass = good", fillcolor="#eca16b"] ;
191 -> 199 ;
200 [label="speechiness <= 71.458\ngini = 0.473\nsamples = 39\nvalue = [24, 15]\nclass = good", fillcolor="#f5d0b5"] ;
199 -> 200 ;
201 [label="gini = 0.0\nsamples = 7\nvalue = [7, 0]\nclass = good", fillcolor="#e58139"] ;
200 -> 201 ;
202 [label="instrumentalness <= 0.688\ngini = 0.498\nsamples = 32\nvalue = [17, 15]\nclass = good", fillcolor="#fcf0e8"] ;
200 -> 202 ;
203 [label="instrumentalness <= 0.618\ngini = 0.483\nsamples = 22\nvalue = [9, 13]\nclass = bad", fillcolor="#c2e1f7"] ;
202 -> 203 ;
204 [label="danceability <= 136397.5\ngini = 0.492\nsamples = 16\nvalue = [9, 7]\nclass = good", fillcolor="#f9e3d3"] ;
203 -> 204 ;
205 [label="gini = 0.0\nsamples = 3\nvalue = [0, 3]\nclass = bad", fillcolor="#399de5"] ;
204 -> 205 ;
206 [label="key <= 0.236\ngini = 0.426\nsamples = 13\nvalue = [9, 4]\nclass = good", fillcolor="#f1b991"] ;
204 -> 206 ;
207 [label="speechiness <= 74.451\ngini = 0.48\nsamples = 5\nvalue = [2, 3]\nclass = bad", fillcolor="#bddef6"] ;
206 -> 207 ;
208 [label="gini = 0.0\nsamples = 2\nvalue = [2, 0]\nclass = good", fillcolor="#e58139"] ;
207 -> 208 ;
209 [label="gini = 0.0\nsamples = 3\nvalue = [0, 3]\nclass = bad", fillcolor="#399de5"] ;
207 -> 209 ;
210 [label="speechiness <= 73.743\ngini = 0.219\nsamples = 8\nvalue = [7, 1]\nclass = good", fillcolor="#e99355"] ;
206 -> 210 ;
211 [label="energy <= 0.914\ngini = 0.5\nsamples = 2\nvalue = [1, 1]\nclass = good", fillcolor="#ffffff"] ;
210 -> 211 ;
212 [label="gini = 0.0\nsamples = 1\nvalue = [0, 1]\nclass = bad", fillcolor="#399de5"] ;
211 -> 212 ;
213 [label="gini = 0.0\nsamples = 1\nvalue = [1, 0]\nclass = good", fillcolor="#e58139"] ;
211 -> 213 ;
214 [label="gini = 0.0\nsamples = 6\nvalue = [6, 0]\nclass = good", fillcolor="#e58139"] ;
210 -> 214 ;
215 [label="gini = 0.0\nsamples = 6\nvalue = [0, 6]\nclass = bad", fillcolor="#399de5"] ;
203 -> 215 ;
216 [label="acousticness <= 3.5\ngini = 0.32\nsamples = 10\nvalue = [8, 2]\nclass = good", fillcolor="#eca06a"] ;
202 -> 216 ;
217 [label="gini = 0.0\nsamples = 1\nvalue = [0, 1]\nclass = bad", fillcolor="#399de5"] ;
216 -> 217 ;
218 [label="mode <= 0.352\ngini = 0.198\nsamples = 9\nvalue = [8, 1]\nclass = good", fillcolor="#e89152"] ;
216 -> 218 ;
219 [label="gini = 0.0\nsamples = 7\nvalue = [7, 0]\nclass = good", fillcolor="#e58139"] ;
218 -> 219 ;
220 [label="gini = 0.5\nsamples = 2\nvalue = [1, 1]\nclass = good", fillcolor="#ffffff"] ;
218 -> 220 ;
221 [label="mode <= 0.217\ngini = 0.292\nsamples = 315\nvalue = [259, 56]\nclass = good", fillcolor="#eb9c64"] ;
199 -> 221 ;
222 [label="instrumentalness <= 0.704\ngini = 0.264\nsamples = 287\nvalue = [242, 45]\nclass = good", fillcolor="#ea985e"] ;
221 -> 222 ;
223 [label="mode <= 0.033\ngini = 0.318\nsamples = 217\nvalue = [174, 43]\nclass = good", fillcolor="#eba06a"] ;
222 -> 223 ;
224 [label="key <= 0.115\ngini = 0.178\nsamples = 71\nvalue = [64, 7]\nclass = good", fillcolor="#e88f4f"] ;
223 -> 224 ;
225 [label="gini = 0.0\nsamples = 1\nvalue = [0, 1]\nclass = bad", fillcolor="#399de5"] ;
224 -> 225 ;
226 [label="key <= 0.753\ngini = 0.157\nsamples = 70\nvalue = [64, 6]\nclass = good", fillcolor="#e78d4c"] ;
224 -> 226 ;
227 [label="key <= 0.25\ngini = 0.134\nsamples = 69\nvalue = [64, 5]\nclass = good", fillcolor="#e78b48"] ;
226 -> 227 ;
228 [label="loudness <= -13.664\ngini = 0.375\nsamples = 12\nvalue = [9, 3]\nclass = good", fillcolor="#eeab7b"] ;
227 -> 228 ;
229 [label="gini = 0.0\nsamples = 6\nvalue = [6, 0]\nclass = good", fillcolor="#e58139"] ;
228 -> 229 ;
230 [label="song_popularity <= 0.5\ngini = 0.5\nsamples = 6\nvalue = [3, 3]\nclass = good", fillcolor="#ffffff"] ;
228 -> 230 ;
231 [label="gini = 0.0\nsamples = 2\nvalue = [2, 0]\nclass = good", fillcolor="#e58139"] ;
230 -> 231 ;
232 [label="speechiness <= 165.328\ngini = 0.375\nsamples = 4\nvalue = [1, 3]\nclass = bad", fillcolor="#7bbeee"] ;
230 -> 232 ;
233 [label="gini = 0.0\nsamples = 3\nvalue = [0, 3]\nclass = bad", fillcolor="#399de5"] ;
232 -> 233 ;
234 [label="gini = 0.0\nsamples = 1\nvalue = [1, 0]\nclass = good", fillcolor="#e58139"] ;
232 -> 234 ;
235 [label="tempo <= 0.43\ngini = 0.068\nsamples = 57\nvalue = [55, 2]\nclass = good", fillcolor="#e68640"] ;
227 -> 235 ;
236 [label="instrumentalness <= 0.635\ngini = 0.172\nsamples = 21\nvalue = [19, 2]\nclass = good", fillcolor="#e88e4e"] ;
235 -> 236 ;
237 [label="tempo <= 0.399\ngini = 0.095\nsamples = 20\nvalue = [19, 1]\nclass = good", fillcolor="#e68843"] ;
236 -> 237 ;
238 [label="gini = 0.0\nsamples = 19\nvalue = [19, 0]\nclass = good", fillcolor="#e58139"] ;
237 -> 238 ;
239 [label="gini = 0.0\nsamples = 1\nvalue = [0, 1]\nclass = bad", fillcolor="#399de5"] ;
237 -> 239 ;
240 [label="gini = 0.0\nsamples = 1\nvalue = [0, 1]\nclass = bad", fillcolor="#399de5"] ;
236 -> 240 ;
241 [label="gini = 0.0\nsamples = 36\nvalue = [36, 0]\nclass = good", fillcolor="#e58139"] ;
235 -> 241 ;
242 [label="gini = 0.0\nsamples = 1\nvalue = [0, 1]\nclass = bad", fillcolor="#399de5"] ;
226 -> 242 ;
243 [label="loudness <= -8.768\ngini = 0.372\nsamples = 146\nvalue = [110, 36]\nclass = good", fillcolor="#eeaa7a"] ;
223 -> 243 ;
244 [label="instrumentalness <= 0.429\ngini = 0.345\nsamples = 131\nvalue = [102, 29]\nclass = good", fillcolor="#eca571"] ;
243 -> 244 ;
245 [label="speechiness <= 167.785\ngini = 0.494\nsamples = 18\nvalue = [10, 8]\nclass = good", fillcolor="#fae6d7"] ;
244 -> 245 ;
246 [label="tempo <= 0.069\ngini = 0.42\nsamples = 10\nvalue = [3, 7]\nclass = bad", fillcolor="#8ec7f0"] ;
245 -> 246 ;
247 [label="gini = 0.0\nsamples = 2\nvalue = [2, 0]\nclass = good", fillcolor="#e58139"] ;
246 -> 247 ;
248 [label="danceability <= 170515.0\ngini = 0.219\nsamples = 8\nvalue = [1, 7]\nclass = bad", fillcolor="#55abe9"] ;
246 -> 248 ;
249 [label="gini = 0.0\nsamples = 6\nvalue = [0, 6]\nclass = bad", fillcolor="#399de5"] ;
248 -> 249 ;
250 [label="gini = 0.5\nsamples = 2\nvalue = [1, 1]\nclass = good", fillcolor="#ffffff"] ;
248 -> 250 ;
251 [label="liveness <= 0.117\ngini = 0.219\nsamples = 8\nvalue = [7, 1]\nclass = good", fillcolor="#e99355"] ;
245 -> 251 ;
252 [label="gini = 0.0\nsamples = 6\nvalue = [6, 0]\nclass = good", fillcolor="#e58139"] ;
251 -> 252 ;
253 [label="song_popularity <= 5.5\ngini = 0.5\nsamples = 2\nvalue = [1, 1]\nclass = good", fillcolor="#ffffff"] ;
251 -> 253 ;
254 [label="gini = 0.0\nsamples = 1\nvalue = [0, 1]\nclass = bad", fillcolor="#399de5"] ;
253 -> 254 ;
255 [label="gini = 0.0\nsamples = 1\nvalue = [1, 0]\nclass = good", fillcolor="#e58139"] ;
253 -> 255 ;
256 [label="tempo <= 0.203\ngini = 0.303\nsamples = 113\nvalue = [92, 21]\nclass = good", fillcolor="#eb9e66"] ;
244 -> 256 ;
257 [label="danceability <= 174076.0\ngini = 0.08\nsamples = 24\nvalue = [23, 1]\nclass = good", fillcolor="#e68642"] ;
256 -> 257 ;
258 [label="gini = 0.0\nsamples = 23\nvalue = [23, 0]\nclass = good", fillcolor="#e58139"] ;
257 -> 258 ;
259 [label="gini = 0.0\nsamples = 1\nvalue = [0, 1]\nclass = bad", fillcolor="#399de5"] ;
257 -> 259 ;
260 [label="liveness <= 0.113\ngini = 0.348\nsamples = 89\nvalue = [69, 20]\nclass = good", fillcolor="#eda672"] ;
256 -> 260 ;
261 [label="tempo <= 0.622\ngini = 0.423\nsamples = 56\nvalue = [39, 17]\nclass = good", fillcolor="#f0b88f"] ;
260 -> 261 ;
262 [label="mode <= 0.037\ngini = 0.491\nsamples = 23\nvalue = [13, 10]\nclass = good", fillcolor="#f9e2d1"] ;
261 -> 262 ;
263 [label="gini = 0.0\nsamples = 5\nvalue = [0, 5]\nclass = bad", fillcolor="#399de5"] ;
262 -> 263 ;
264 [label="instrumentalness <= 0.498\ngini = 0.401\nsamples = 18\nvalue = [13, 5]\nclass = good", fillcolor="#efb185"] ;
262 -> 264 ;
265 [label="gini = 0.0\nsamples = 2\nvalue = [0, 2]\nclass = bad", fillcolor="#399de5"] ;
264 -> 265 ;
266 [label="tempo <= 0.611\ngini = 0.305\nsamples = 16\nvalue = [13, 3]\nclass = good", fillcolor="#eb9e67"] ;
264 -> 266 ;
267 [label="danceability <= 157386.0\ngini = 0.231\nsamples = 15\nvalue = [13, 2]\nclass = good", fillcolor="#e99457"] ;
266 -> 267 ;
268 [label="gini = 0.0\nsamples = 9\nvalue = [9, 0]\nclass = good", fillcolor="#e58139"] ;
267 -> 268 ;
269 [label="tempo <= 0.367\ngini = 0.444\nsamples = 6\nvalue = [4, 2]\nclass = good", fillcolor="#f2c09c"] ;
267 -> 269 ;
270 [label="gini = 0.0\nsamples = 3\nvalue = [3, 0]\nclass = good", fillcolor="#e58139"] ;
269 -> 270 ;
271 [label="key <= 0.382\ngini = 0.444\nsamples = 3\nvalue = [1, 2]\nclass = bad", fillcolor="#9ccef2"] ;
269 -> 271 ;
272 [label="gini = 0.0\nsamples = 2\nvalue = [0, 2]\nclass = bad", fillcolor="#399de5"] ;
271 -> 272 ;
273 [label="gini = 0.0\nsamples = 1\nvalue = [1, 0]\nclass = good", fillcolor="#e58139"] ;
271 -> 273 ;
274 [label="gini = 0.0\nsamples = 1\nvalue = [0, 1]\nclass = bad", fillcolor="#399de5"] ;
266 -> 274 ;
275 [label="instrumentalness <= 0.616\ngini = 0.334\nsamples = 33\nvalue = [26, 7]\nclass = good", fillcolor="#eca36e"] ;
261 -> 275 ;
276 [label="song_popularity <= 8.5\ngini = 0.1\nsamples = 19\nvalue = [18, 1]\nclass = good", fillcolor="#e68844"] ;
275 -> 276 ;
277 [label="gini = 0.0\nsamples = 15\nvalue = [15, 0]\nclass = good", fillcolor="#e58139"] ;
276 -> 277 ;
278 [label="speechiness <= 152.777\ngini = 0.375\nsamples = 4\nvalue = [3, 1]\nclass = good", fillcolor="#eeab7b"] ;
276 -> 278 ;
279 [label="gini = 0.0\nsamples = 2\nvalue = [2, 0]\nclass = good", fillcolor="#e58139"] ;
278 -> 279 ;
280 [label="gini = 0.5\nsamples = 2\nvalue = [1, 1]\nclass = good", fillcolor="#ffffff"] ;
278 -> 280 ;
281 [label="danceability <= 147966.5\ngini = 0.49\nsamples = 14\nvalue = [8, 6]\nclass = good", fillcolor="#f8e0ce"] ;
275 -> 281 ;
282 [label="mode <= 0.038\ngini = 0.32\nsamples = 5\nvalue = [1, 4]\nclass = bad", fillcolor="#6ab6ec"] ;
281 -> 282 ;
283 [label="gini = 0.0\nsamples = 1\nvalue = [1, 0]\nclass = good", fillcolor="#e58139"] ;
282 -> 283 ;
284 [label="gini = 0.0\nsamples = 4\nvalue = [0, 4]\nclass = bad", fillcolor="#399de5"] ;
282 -> 284 ;
285 [label="instrumentalness <= 0.629\ngini = 0.346\nsamples = 9\nvalue = [7, 2]\nclass = good", fillcolor="#eca572"] ;
281 -> 285 ;
286 [label="gini = 0.0\nsamples = 1\nvalue = [0, 1]\nclass = bad", fillcolor="#399de5"] ;
285 -> 286 ;
287 [label="energy <= 0.527\ngini = 0.219\nsamples = 8\nvalue = [7, 1]\nclass = good", fillcolor="#e99355"] ;
285 -> 287 ;
288 [label="danceability <= 160700.0\ngini = 0.5\nsamples = 2\nvalue = [1, 1]\nclass = good", fillcolor="#ffffff"] ;
287 -> 288 ;
289 [label="gini = 0.0\nsamples = 1\nvalue = [1, 0]\nclass = good", fillcolor="#e58139"] ;
288 -> 289 ;
290 [label="gini = 0.0\nsamples = 1\nvalue = [0, 1]\nclass = bad", fillcolor="#399de5"] ;
288 -> 290 ;
291 [label="gini = 0.0\nsamples = 6\nvalue = [6, 0]\nclass = good", fillcolor="#e58139"] ;
287 -> 291 ;
292 [label="speechiness <= 85.831\ngini = 0.165\nsamples = 33\nvalue = [30, 3]\nclass = good", fillcolor="#e88e4d"] ;
260 -> 292 ;
293 [label="danceability <= 160286.0\ngini = 0.444\nsamples = 3\nvalue = [1, 2]\nclass = bad", fillcolor="#9ccef2"] ;
292 -> 293 ;
294 [label="gini = 0.0\nsamples = 2\nvalue = [0, 2]\nclass = bad", fillcolor="#399de5"] ;
293 -> 294 ;
295 [label="gini = 0.0\nsamples = 1\nvalue = [1, 0]\nclass = good", fillcolor="#e58139"] ;
293 -> 295 ;
296 [label="liveness <= 0.13\ngini = 0.064\nsamples = 30\nvalue = [29, 1]\nclass = good", fillcolor="#e68540"] ;
292 -> 296 ;
297 [label="gini = 0.0\nsamples = 26\nvalue = [26, 0]\nclass = good", fillcolor="#e58139"] ;
296 -> 297 ;
298 [label="speechiness <= 113.538\ngini = 0.375\nsamples = 4\nvalue = [3, 1]\nclass = good", fillcolor="#eeab7b"] ;
296 -> 298 ;
299 [label="gini = 0.5\nsamples = 2\nvalue = [1, 1]\nclass = good", fillcolor="#ffffff"] ;
298 -> 299 ;
300 [label="gini = 0.0\nsamples = 2\nvalue = [2, 0]\nclass = good", fillcolor="#e58139"] ;
298 -> 300 ;
301 [label="instrumentalness <= 0.593\ngini = 0.498\nsamples = 15\nvalue = [8, 7]\nclass = good", fillcolor="#fcefe6"] ;
243 -> 301 ;
302 [label="tempo <= 0.21\ngini = 0.245\nsamples = 7\nvalue = [6, 1]\nclass = good", fillcolor="#e9965a"] ;
301 -> 302 ;
303 [label="gini = 0.0\nsamples = 1\nvalue = [0, 1]\nclass = bad", fillcolor="#399de5"] ;
302 -> 303 ;
304 [label="gini = 0.0\nsamples = 6\nvalue = [6, 0]\nclass = good", fillcolor="#e58139"] ;
302 -> 304 ;
305 [label="energy <= 0.56\ngini = 0.375\nsamples = 8\nvalue = [2, 6]\nclass = bad", fillcolor="#7bbeee"] ;
301 -> 305 ;
306 [label="tempo <= 0.571\ngini = 0.444\nsamples = 3\nvalue = [2, 1]\nclass = good", fillcolor="#f2c09c"] ;
305 -> 306 ;
307 [label="gini = 0.0\nsamples = 2\nvalue = [2, 0]\nclass = good", fillcolor="#e58139"] ;
306 -> 307 ;
308 [label="gini = 0.0\nsamples = 1\nvalue = [0, 1]\nclass = bad", fillcolor="#399de5"] ;
306 -> 308 ;
309 [label="gini = 0.0\nsamples = 5\nvalue = [0, 5]\nclass = bad", fillcolor="#399de5"] ;
305 -> 309 ;
310 [label="speechiness <= 83.153\ngini = 0.056\nsamples = 70\nvalue = [68, 2]\nclass = good", fillcolor="#e6853f"] ;
222 -> 310 ;
311 [label="liveness <= 0.098\ngini = 0.32\nsamples = 5\nvalue = [4, 1]\nclass = good", fillcolor="#eca06a"] ;
310 -> 311 ;
312 [label="gini = 0.0\nsamples = 1\nvalue = [0, 1]\nclass = bad", fillcolor="#399de5"] ;
311 -> 312 ;
313 [label="gini = 0.0\nsamples = 4\nvalue = [4, 0]\nclass = good", fillcolor="#e58139"] ;
311 -> 313 ;
314 [label="energy <= 0.907\ngini = 0.03\nsamples = 65\nvalue = [64, 1]\nclass = good", fillcolor="#e5833c"] ;
310 -> 314 ;
315 [label="gini = 0.0\nsamples = 61\nvalue = [61, 0]\nclass = good", fillcolor="#e58139"] ;
314 -> 315 ;
316 [label="liveness <= 0.103\ngini = 0.375\nsamples = 4\nvalue = [3, 1]\nclass = good", fillcolor="#eeab7b"] ;
314 -> 316 ;
317 [label="gini = 0.0\nsamples = 3\nvalue = [3, 0]\nclass = good", fillcolor="#e58139"] ;
316 -> 317 ;
318 [label="gini = 0.0\nsamples = 1\nvalue = [0, 1]\nclass = bad", fillcolor="#399de5"] ;
316 -> 318 ;
319 [label="tempo <= 0.284\ngini = 0.477\nsamples = 28\nvalue = [17, 11]\nclass = good", fillcolor="#f6d3b9"] ;
221 -> 319 ;
320 [label="gini = 0.0\nsamples = 6\nvalue = [0, 6]\nclass = bad", fillcolor="#399de5"] ;
319 -> 320 ;
321 [label="danceability <= 158333.0\ngini = 0.351\nsamples = 22\nvalue = [17, 5]\nclass = good", fillcolor="#eda673"] ;
319 -> 321 ;
322 [label="danceability <= 115765.5\ngini = 0.117\nsamples = 16\nvalue = [15, 1]\nclass = good", fillcolor="#e78946"] ;
321 -> 322 ;
323 [label="gini = 0.0\nsamples = 1\nvalue = [0, 1]\nclass = bad", fillcolor="#399de5"] ;
322 -> 323 ;
324 [label="gini = 0.0\nsamples = 15\nvalue = [15, 0]\nclass = good", fillcolor="#e58139"] ;
322 -> 324 ;
325 [label="danceability <= 167311.5\ngini = 0.444\nsamples = 6\nvalue = [2, 4]\nclass = bad", fillcolor="#9ccef2"] ;
321 -> 325 ;
326 [label="gini = 0.0\nsamples = 4\nvalue = [0, 4]\nclass = bad", fillcolor="#399de5"] ;
325 -> 326 ;
327 [label="gini = 0.0\nsamples = 2\nvalue = [2, 0]\nclass = good", fillcolor="#e58139"] ;
325 -> 327 ;
328 [label="tempo <= 0.258\ngini = 0.177\nsamples = 276\nvalue = [249, 27]\nclass = good", fillcolor="#e88f4e"] ;
190 -> 328 ;
329 [label="tempo <= 0.244\ngini = 0.408\nsamples = 28\nvalue = [20, 8]\nclass = good", fillcolor="#efb388"] ;
328 -> 329 ;
330 [label="energy <= 0.323\ngini = 0.32\nsamples = 25\nvalue = [20, 5]\nclass = good", fillcolor="#eca06a"] ;
329 -> 330 ;
331 [label="gini = 0.0\nsamples = 1\nvalue = [0, 1]\nclass = bad", fillcolor="#399de5"] ;
330 -> 331 ;
332 [label="key <= 0.612\ngini = 0.278\nsamples = 24\nvalue = [20, 4]\nclass = good", fillcolor="#ea9a61"] ;
330 -> 332 ;
333 [label="key <= 0.241\ngini = 0.227\nsamples = 23\nvalue = [20, 3]\nclass = good", fillcolor="#e99457"] ;
332 -> 333 ;
334 [label="key <= 0.184\ngini = 0.444\nsamples = 6\nvalue = [4, 2]\nclass = good", fillcolor="#f2c09c"] ;
333 -> 334 ;
335 [label="gini = 0.0\nsamples = 4\nvalue = [4, 0]\nclass = good", fillcolor="#e58139"] ;
334 -> 335 ;
336 [label="gini = 0.0\nsamples = 2\nvalue = [0, 2]\nclass = bad", fillcolor="#399de5"] ;
334 -> 336 ;
337 [label="loudness <= -9.802\ngini = 0.111\nsamples = 17\nvalue = [16, 1]\nclass = good", fillcolor="#e78945"] ;
333 -> 337 ;
338 [label="gini = 0.0\nsamples = 14\nvalue = [14, 0]\nclass = good", fillcolor="#e58139"] ;
337 -> 338 ;
339 [label="key <= 0.469\ngini = 0.444\nsamples = 3\nvalue = [2, 1]\nclass = good", fillcolor="#f2c09c"] ;
337 -> 339 ;
340 [label="gini = 0.0\nsamples = 1\nvalue = [0, 1]\nclass = bad", fillcolor="#399de5"] ;
339 -> 340 ;
341 [label="gini = 0.0\nsamples = 2\nvalue = [2, 0]\nclass = good", fillcolor="#e58139"] ;
339 -> 341 ;
342 [label="gini = 0.0\nsamples = 1\nvalue = [0, 1]\nclass = bad", fillcolor="#399de5"] ;
332 -> 342 ;
343 [label="gini = 0.0\nsamples = 3\nvalue = [0, 3]\nclass = bad", fillcolor="#399de5"] ;
329 -> 343 ;
344 [label="instrumentalness <= 0.389\ngini = 0.141\nsamples = 248\nvalue = [229, 19]\nclass = good", fillcolor="#e78b49"] ;
328 -> 344 ;
345 [label="song_popularity <= 2.5\ngini = 0.42\nsamples = 20\nvalue = [14, 6]\nclass = good", fillcolor="#f0b78e"] ;
344 -> 345 ;
346 [label="gini = 0.0\nsamples = 4\nvalue = [0, 4]\nclass = bad", fillcolor="#399de5"] ;
345 -> 346 ;
347 [label="danceability <= 172955.5\ngini = 0.219\nsamples = 16\nvalue = [14, 2]\nclass = good", fillcolor="#e99355"] ;
345 -> 347 ;
348 [label="gini = 0.0\nsamples = 14\nvalue = [14, 0]\nclass = good", fillcolor="#e58139"] ;
347 -> 348 ;
349 [label="gini = 0.0\nsamples = 2\nvalue = [0, 2]\nclass = bad", fillcolor="#399de5"] ;
347 -> 349 ;
350 [label="mode <= 0.026\ngini = 0.108\nsamples = 228\nvalue = [215, 13]\nclass = good", fillcolor="#e78945"] ;
344 -> 350 ;
351 [label="speechiness <= 94.414\ngini = 0.5\nsamples = 4\nvalue = [2, 2]\nclass = good", fillcolor="#ffffff"] ;
350 -> 351 ;
352 [label="gini = 0.0\nsamples = 2\nvalue = [0, 2]\nclass = bad", fillcolor="#399de5"] ;
351 -> 352 ;
353 [label="gini = 0.0\nsamples = 2\nvalue = [2, 0]\nclass = good", fillcolor="#e58139"] ;
351 -> 353 ;
354 [label="key <= 0.507\ngini = 0.093\nsamples = 224\nvalue = [213, 11]\nclass = good", fillcolor="#e68843"] ;
350 -> 354 ;
355 [label="energy <= 0.333\ngini = 0.028\nsamples = 140\nvalue = [138, 2]\nclass = good", fillcolor="#e5833c"] ;
354 -> 355 ;
356 [label="speechiness <= 92.399\ngini = 0.5\nsamples = 2\nvalue = [1, 1]\nclass = good", fillcolor="#ffffff"] ;
355 -> 356 ;
357 [label="gini = 0.0\nsamples = 1\nvalue = [1, 0]\nclass = good", fillcolor="#e58139"] ;
356 -> 357 ;
358 [label="gini = 0.0\nsamples = 1\nvalue = [0, 1]\nclass = bad", fillcolor="#399de5"] ;
356 -> 358 ;
359 [label="speechiness <= 78.841\ngini = 0.014\nsamples = 138\nvalue = [137, 1]\nclass = good", fillcolor="#e5823a"] ;
355 -> 359 ;
360 [label="speechiness <= 78.384\ngini = 0.245\nsamples = 7\nvalue = [6, 1]\nclass = good", fillcolor="#e9965a"] ;
359 -> 360 ;
361 [label="gini = 0.0\nsamples = 6\nvalue = [6, 0]\nclass = good", fillcolor="#e58139"] ;
360 -> 361 ;
362 [label="gini = 0.0\nsamples = 1\nvalue = [0, 1]\nclass = bad", fillcolor="#399de5"] ;
360 -> 362 ;
363 [label="gini = 0.0\nsamples = 131\nvalue = [131, 0]\nclass = good", fillcolor="#e58139"] ;
359 -> 363 ;
364 [label="key <= 0.53\ngini = 0.191\nsamples = 84\nvalue = [75, 9]\nclass = good", fillcolor="#e89051"] ;
354 -> 364 ;
365 [label="liveness <= 0.248\ngini = 0.444\nsamples = 6\nvalue = [2, 4]\nclass = bad", fillcolor="#9ccef2"] ;
364 -> 365 ;
366 [label="gini = 0.0\nsamples = 2\nvalue = [2, 0]\nclass = good", fillcolor="#e58139"] ;
365 -> 366 ;
367 [label="gini = 0.0\nsamples = 4\nvalue = [0, 4]\nclass = bad", fillcolor="#399de5"] ;
365 -> 367 ;
368 [label="danceability <= 119820.0\ngini = 0.12\nsamples = 78\nvalue = [73, 5]\nclass = good", fillcolor="#e78a47"] ;
364 -> 368 ;
369 [label="gini = 0.0\nsamples = 1\nvalue = [0, 1]\nclass = bad", fillcolor="#399de5"] ;
368 -> 369 ;
370 [label="energy <= 0.78\ngini = 0.098\nsamples = 77\nvalue = [73, 4]\nclass = good", fillcolor="#e68844"] ;
368 -> 370 ;
371 [label="speechiness <= 189.386\ngini = 0.056\nsamples = 70\nvalue = [68, 2]\nclass = good", fillcolor="#e6853f"] ;
370 -> 371 ;
372 [label="speechiness <= 82.809\ngini = 0.029\nsamples = 68\nvalue = [67, 1]\nclass = good", fillcolor="#e5833c"] ;
371 -> 372 ;
373 [label="song_popularity <= 0.5\ngini = 0.32\nsamples = 5\nvalue = [4, 1]\nclass = good", fillcolor="#eca06a"] ;
372 -> 373 ;
374 [label="gini = 0.0\nsamples = 1\nvalue = [0, 1]\nclass = bad", fillcolor="#399de5"] ;
373 -> 374 ;
375 [label="gini = 0.0\nsamples = 4\nvalue = [4, 0]\nclass = good", fillcolor="#e58139"] ;
373 -> 375 ;
376 [label="gini = 0.0\nsamples = 63\nvalue = [63, 0]\nclass = good", fillcolor="#e58139"] ;
372 -> 376 ;
377 [label="loudness <= -9.929\ngini = 0.5\nsamples = 2\nvalue = [1, 1]\nclass = good", fillcolor="#ffffff"] ;
371 -> 377 ;
378 [label="gini = 0.0\nsamples = 1\nvalue = [1, 0]\nclass = good", fillcolor="#e58139"] ;
377 -> 378 ;
379 [label="gini = 0.0\nsamples = 1\nvalue = [0, 1]\nclass = bad", fillcolor="#399de5"] ;
377 -> 379 ;
380 [label="liveness <= 0.295\ngini = 0.408\nsamples = 7\nvalue = [5, 2]\nclass = good", fillcolor="#efb388"] ;
370 -> 380 ;
381 [label="gini = 0.0\nsamples = 5\nvalue = [5, 0]\nclass = good", fillcolor="#e58139"] ;
380 -> 381 ;
382 [label="gini = 0.0\nsamples = 2\nvalue = [0, 2]\nclass = bad", fillcolor="#399de5"] ;
380 -> 382 ;
383 [label="instrumentalness <= 0.264\ngini = 0.418\nsamples = 3289\nvalue = [2310, 979]\nclass = good", fillcolor="#f0b68d"] ;
1 -> 383 ;
384 [label="mode <= 0.034\ngini = 0.143\nsamples = 103\nvalue = [95, 8]\nclass = good", fillcolor="#e78c4a"] ;
383 -> 384 ;
385 [label="energy <= 0.984\ngini = 0.346\nsamples = 27\nvalue = [21, 6]\nclass = good", fillcolor="#eca572"] ;
384 -> 385 ;
386 [label="instrumentalness <= 0.15\ngini = 0.269\nsamples = 25\nvalue = [21, 4]\nclass = good", fillcolor="#ea995f"] ;
385 -> 386 ;
387 [label="gini = 0.0\nsamples = 1\nvalue = [0, 1]\nclass = bad", fillcolor="#399de5"] ;
386 -> 387 ;
388 [label="mode <= 0.033\ngini = 0.219\nsamples = 24\nvalue = [21, 3]\nclass = good", fillcolor="#e99355"] ;
386 -> 388 ;
389 [label="gini = 0.0\nsamples = 16\nvalue = [16, 0]\nclass = good", fillcolor="#e58139"] ;
388 -> 389 ;
390 [label="instrumentalness <= 0.222\ngini = 0.469\nsamples = 8\nvalue = [5, 3]\nclass = good", fillcolor="#f5cdb0"] ;
388 -> 390 ;
391 [label="mode <= 0.034\ngini = 0.48\nsamples = 5\nvalue = [2, 3]\nclass = bad", fillcolor="#bddef6"] ;
390 -> 391 ;
392 [label="danceability <= 227693.0\ngini = 0.444\nsamples = 3\nvalue = [2, 1]\nclass = good", fillcolor="#f2c09c"] ;
391 -> 392 ;
393 [label="gini = 0.0\nsamples = 1\nvalue = [1, 0]\nclass = good", fillcolor="#e58139"] ;
392 -> 393 ;
394 [label="gini = 0.5\nsamples = 2\nvalue = [1, 1]\nclass = good", fillcolor="#ffffff"] ;
392 -> 394 ;
395 [label="gini = 0.0\nsamples = 2\nvalue = [0, 2]\nclass = bad", fillcolor="#399de5"] ;
391 -> 395 ;
396 [label="gini = 0.0\nsamples = 3\nvalue = [3, 0]\nclass = good", fillcolor="#e58139"] ;
390 -> 396 ;
397 [label="gini = 0.0\nsamples = 2\nvalue = [0, 2]\nclass = bad", fillcolor="#399de5"] ;
385 -> 397 ;
398 [label="loudness <= -8.252\ngini = 0.051\nsamples = 76\nvalue = [74, 2]\nclass = good", fillcolor="#e6843e"] ;
384 -> 398 ;
399 [label="energy <= 0.19\ngini = 0.026\nsamples = 75\nvalue = [74, 1]\nclass = good", fillcolor="#e5833c"] ;
398 -> 399 ;
400 [label="danceability <= 291226.0\ngini = 0.245\nsamples = 7\nvalue = [6, 1]\nclass = good", fillcolor="#e9965a"] ;
399 -> 400 ;
401 [label="gini = 0.0\nsamples = 6\nvalue = [6, 0]\nclass = good", fillcolor="#e58139"] ;
400 -> 401 ;
402 [label="gini = 0.0\nsamples = 1\nvalue = [0, 1]\nclass = bad", fillcolor="#399de5"] ;
400 -> 402 ;
403 [label="gini = 0.0\nsamples = 68\nvalue = [68, 0]\nclass = good", fillcolor="#e58139"] ;
399 -> 403 ;
404 [label="gini = 0.0\nsamples = 1\nvalue = [0, 1]\nclass = bad", fillcolor="#399de5"] ;
398 -> 404 ;
405 [label="tempo <= 0.803\ngini = 0.424\nsamples = 3186\nvalue = [2215, 971]\nclass = good", fillcolor="#f0b890"] ;
383 -> 405 ;
406 [label="loudness <= -15.431\ngini = 0.436\nsamples = 2715\nvalue = [1845, 870]\nclass = good", fillcolor="#f1bc96"] ;
405 -> 406 ;
407 [label="danceability <= 177411.0\ngini = 0.349\nsamples = 231\nvalue = [179, 52]\nclass = good", fillcolor="#eda673"] ;
406 -> 407 ;
408 [label="danceability <= 174374.0\ngini = 0.278\nsamples = 6\nvalue = [1, 5]\nclass = bad", fillcolor="#61b1ea"] ;
407 -> 408 ;
409 [label="gini = 0.0\nsamples = 1\nvalue = [1, 0]\nclass = good", fillcolor="#e58139"] ;
408 -> 409 ;
410 [label="gini = 0.0\nsamples = 5\nvalue = [0, 5]\nclass = bad", fillcolor="#399de5"] ;
408 -> 410 ;
411 [label="liveness <= 0.048\ngini = 0.331\nsamples = 225\nvalue = [178, 47]\nclass = good", fillcolor="#eca26d"] ;
407 -> 411 ;
412 [label="gini = 0.0\nsamples = 2\nvalue = [0, 2]\nclass = bad", fillcolor="#399de5"] ;
411 -> 412 ;
413 [label="instrumentalness <= 0.689\ngini = 0.322\nsamples = 223\nvalue = [178, 45]\nclass = good", fillcolor="#eca16b"] ;
411 -> 413 ;
414 [label="tempo <= 0.062\ngini = 0.36\nsamples = 183\nvalue = [140, 43]\nclass = good", fillcolor="#eda876"] ;
413 -> 414 ;
415 [label="liveness <= 0.172\ngini = 0.074\nsamples = 26\nvalue = [25, 1]\nclass = good", fillcolor="#e68641"] ;
414 -> 415 ;
416 [label="gini = 0.0\nsamples = 24\nvalue = [24, 0]\nclass = good", fillcolor="#e58139"] ;
415 -> 416 ;
417 [label="energy <= 0.738\ngini = 0.5\nsamples = 2\nvalue = [1, 1]\nclass = good", fillcolor="#ffffff"] ;
415 -> 417 ;
418 [label="gini = 0.0\nsamples = 1\nvalue = [1, 0]\nclass = good", fillcolor="#e58139"] ;
417 -> 418 ;
419 [label="gini = 0.0\nsamples = 1\nvalue = [0, 1]\nclass = bad", fillcolor="#399de5"] ;
417 -> 419 ;
420 [label="instrumentalness <= 0.671\ngini = 0.392\nsamples = 157\nvalue = [115, 42]\nclass = good", fillcolor="#eeaf81"] ;
414 -> 420 ;
421 [label="tempo <= 0.065\ngini = 0.378\nsamples = 154\nvalue = [115, 39]\nclass = good", fillcolor="#eeac7c"] ;
420 -> 421 ;
422 [label="gini = 0.0\nsamples = 3\nvalue = [0, 3]\nclass = bad", fillcolor="#399de5"] ;
421 -> 422 ;
423 [label="key <= 0.288\ngini = 0.363\nsamples = 151\nvalue = [115, 36]\nclass = good", fillcolor="#eda877"] ;
421 -> 423 ;
424 [label="tempo <= 0.096\ngini = 0.395\nsamples = 133\nvalue = [97, 36]\nclass = good", fillcolor="#efb082"] ;
423 -> 424 ;
425 [label="danceability <= 188934.0\ngini = 0.111\nsamples = 17\nvalue = [16, 1]\nclass = good", fillcolor="#e78945"] ;
424 -> 425 ;
426 [label="instrumentalness <= 0.357\ngini = 0.5\nsamples = 2\nvalue = [1, 1]\nclass = good", fillcolor="#ffffff"] ;
425 -> 426 ;
427 [label="gini = 0.0\nsamples = 1\nvalue = [1, 0]\nclass = good", fillcolor="#e58139"] ;
426 -> 427 ;
428 [label="gini = 0.0\nsamples = 1\nvalue = [0, 1]\nclass = bad", fillcolor="#399de5"] ;
426 -> 428 ;
429 [label="gini = 0.0\nsamples = 15\nvalue = [15, 0]\nclass = good", fillcolor="#e58139"] ;
425 -> 429 ;
430 [label="energy <= 0.991\ngini = 0.421\nsamples = 116\nvalue = [81, 35]\nclass = good", fillcolor="#f0b78f"] ;
424 -> 430 ;
431 [label="tempo <= 0.115\ngini = 0.387\nsamples = 103\nvalue = [76, 27]\nclass = good", fillcolor="#eeae7f"] ;
430 -> 431 ;
432 [label="speechiness <= 126.173\ngini = 0.469\nsamples = 8\nvalue = [3, 5]\nclass = bad", fillcolor="#b0d8f5"] ;
431 -> 432 ;
433 [label="gini = 0.0\nsamples = 4\nvalue = [0, 4]\nclass = bad", fillcolor="#399de5"] ;
432 -> 433 ;
434 [label="tempo <= 0.098\ngini = 0.375\nsamples = 4\nvalue = [3, 1]\nclass = good", fillcolor="#eeab7b"] ;
432 -> 434 ;
435 [label="gini = 0.0\nsamples = 1\nvalue = [0, 1]\nclass = bad", fillcolor="#399de5"] ;
434 -> 435 ;
436 [label="gini = 0.0\nsamples = 3\nvalue = [3, 0]\nclass = good", fillcolor="#e58139"] ;
434 -> 436 ;
437 [label="tempo <= 0.171\ngini = 0.356\nsamples = 95\nvalue = [73, 22]\nclass = good", fillcolor="#eda775"] ;
431 -> 437 ;
438 [label="speechiness <= 180.867\ngini = 0.137\nsamples = 27\nvalue = [25, 2]\nclass = good", fillcolor="#e78b49"] ;
437 -> 438 ;
439 [label="loudness <= -15.73\ngini = 0.074\nsamples = 26\nvalue = [25, 1]\nclass = good", fillcolor="#e68641"] ;
438 -> 439 ;
440 [label="gini = 0.0\nsamples = 23\nvalue = [23, 0]\nclass = good", fillcolor="#e58139"] ;
439 -> 440 ;
441 [label="liveness <= 0.109\ngini = 0.444\nsamples = 3\nvalue = [2, 1]\nclass = good", fillcolor="#f2c09c"] ;
439 -> 441 ;
442 [label="gini = 0.0\nsamples = 1\nvalue = [0, 1]\nclass = bad", fillcolor="#399de5"] ;
441 -> 442 ;
443 [label="gini = 0.0\nsamples = 2\nvalue = [2, 0]\nclass = good", fillcolor="#e58139"] ;
441 -> 443 ;
444 [label="gini = 0.0\nsamples = 1\nvalue = [0, 1]\nclass = bad", fillcolor="#399de5"] ;
438 -> 444 ;
445 [label="instrumentalness <= 0.428\ngini = 0.415\nsamples = 68\nvalue = [48, 20]\nclass = good", fillcolor="#f0b58b"] ;
437 -> 445 ;
446 [label="danceability <= 194718.0\ngini = 0.498\nsamples = 15\nvalue = [7, 8]\nclass = bad", fillcolor="#e6f3fc"] ;
445 -> 446 ;
447 [label="gini = 0.0\nsamples = 3\nvalue = [3, 0]\nclass = good", fillcolor="#e58139"] ;
446 -> 447 ;
448 [label="speechiness <= 126.277\ngini = 0.444\nsamples = 12\nvalue = [4, 8]\nclass = bad", fillcolor="#9ccef2"] ;
446 -> 448 ;
449 [label="instrumentalness <= 0.348\ngini = 0.5\nsamples = 8\nvalue = [4, 4]\nclass = good", fillcolor="#ffffff"] ;
448 -> 449 ;
450 [label="gini = 0.0\nsamples = 2\nvalue = [2, 0]\nclass = good", fillcolor="#e58139"] ;
449 -> 450 ;
451 [label="tempo <= 0.234\ngini = 0.444\nsamples = 6\nvalue = [2, 4]\nclass = bad", fillcolor="#9ccef2"] ;
449 -> 451 ;
452 [label="danceability <= 229079.5\ngini = 0.444\nsamples = 3\nvalue = [2, 1]\nclass = good", fillcolor="#f2c09c"] ;
451 -> 452 ;
453 [label="gini = 0.0\nsamples = 1\nvalue = [1, 0]\nclass = good", fillcolor="#e58139"] ;
452 -> 453 ;
454 [label="gini = 0.5\nsamples = 2\nvalue = [1, 1]\nclass = good", fillcolor="#ffffff"] ;
452 -> 454 ;
455 [label="gini = 0.0\nsamples = 3\nvalue = [0, 3]\nclass = bad", fillcolor="#399de5"] ;
451 -> 455 ;
456 [label="gini = 0.0\nsamples = 4\nvalue = [0, 4]\nclass = bad", fillcolor="#399de5"] ;
448 -> 456 ;
457 [label="song_popularity <= 10.5\ngini = 0.35\nsamples = 53\nvalue = [41, 12]\nclass = good", fillcolor="#eda673"] ;
445 -> 457 ;
458 [label="song_popularity <= 5.5\ngini = 0.282\nsamples = 47\nvalue = [39, 8]\nclass = good", fillcolor="#ea9b62"] ;
457 -> 458 ;
459 [label="acousticness <= 3.5\ngini = 0.391\nsamples = 30\nvalue = [22, 8]\nclass = good", fillcolor="#eeaf81"] ;
458 -> 459 ;
460 [label="gini = 0.0\nsamples = 2\nvalue = [0, 2]\nclass = bad", fillcolor="#399de5"] ;
459 -> 460 ;
461 [label="loudness <= -16.322\ngini = 0.337\nsamples = 28\nvalue = [22, 6]\nclass = good", fillcolor="#eca36f"] ;
459 -> 461 ;
462 [label="key <= 0.072\ngini = 0.219\nsamples = 24\nvalue = [21, 3]\nclass = good", fillcolor="#e99355"] ;
461 -> 462 ;
463 [label="instrumentalness <= 0.507\ngini = 0.444\nsamples = 3\nvalue = [1, 2]\nclass = bad", fillcolor="#9ccef2"] ;
462 -> 463 ;
464 [label="gini = 0.0\nsamples = 2\nvalue = [0, 2]\nclass = bad", fillcolor="#399de5"] ;
463 -> 464 ;
465 [label="gini = 0.0\nsamples = 1\nvalue = [1, 0]\nclass = good", fillcolor="#e58139"] ;
463 -> 465 ;
466 [label="danceability <= 184717.5\ngini = 0.091\nsamples = 21\nvalue = [20, 1]\nclass = good", fillcolor="#e68743"] ;
462 -> 466 ;
467 [label="liveness <= 0.122\ngini = 0.444\nsamples = 3\nvalue = [2, 1]\nclass = good", fillcolor="#f2c09c"] ;
466 -> 467 ;
468 [label="gini = 0.0\nsamples = 1\nvalue = [0, 1]\nclass = bad", fillcolor="#399de5"] ;
467 -> 468 ;
469 [label="gini = 0.0\nsamples = 2\nvalue = [2, 0]\nclass = good", fillcolor="#e58139"] ;
467 -> 469 ;
470 [label="gini = 0.0\nsamples = 18\nvalue = [18, 0]\nclass = good", fillcolor="#e58139"] ;
466 -> 470 ;
471 [label="energy <= 0.92\ngini = 0.375\nsamples = 4\nvalue = [1, 3]\nclass = bad", fillcolor="#7bbeee"] ;
461 -> 471 ;
472 [label="gini = 0.0\nsamples = 3\nvalue = [0, 3]\nclass = bad", fillcolor="#399de5"] ;
471 -> 472 ;
473 [label="gini = 0.0\nsamples = 1\nvalue = [1, 0]\nclass = good", fillcolor="#e58139"] ;
471 -> 473 ;
474 [label="gini = 0.0\nsamples = 17\nvalue = [17, 0]\nclass = good", fillcolor="#e58139"] ;
458 -> 474 ;
475 [label="tempo <= 0.553\ngini = 0.444\nsamples = 6\nvalue = [2, 4]\nclass = bad", fillcolor="#9ccef2"] ;
457 -> 475 ;
476 [label="gini = 0.0\nsamples = 4\nvalue = [0, 4]\nclass = bad", fillcolor="#399de5"] ;
475 -> 476 ;
477 [label="gini = 0.0\nsamples = 2\nvalue = [2, 0]\nclass = good", fillcolor="#e58139"] ;
475 -> 477 ;
478 [label="instrumentalness <= 0.461\ngini = 0.473\nsamples = 13\nvalue = [5, 8]\nclass = bad", fillcolor="#b5daf5"] ;
430 -> 478 ;
479 [label="instrumentalness <= 0.373\ngini = 0.408\nsamples = 7\nvalue = [5, 2]\nclass = good", fillcolor="#efb388"] ;
478 -> 479 ;
480 [label="gini = 0.0\nsamples = 2\nvalue = [0, 2]\nclass = bad", fillcolor="#399de5"] ;
479 -> 480 ;
481 [label="gini = 0.0\nsamples = 5\nvalue = [5, 0]\nclass = good", fillcolor="#e58139"] ;
479 -> 481 ;
482 [label="gini = 0.0\nsamples = 6\nvalue = [0, 6]\nclass = bad", fillcolor="#399de5"] ;
478 -> 482 ;
483 [label="gini = 0.0\nsamples = 18\nvalue = [18, 0]\nclass = good", fillcolor="#e58139"] ;
423 -> 483 ;
484 [label="gini = 0.0\nsamples = 3\nvalue = [0, 3]\nclass = bad", fillcolor="#399de5"] ;
420 -> 484 ;
485 [label="instrumentalness <= 0.944\ngini = 0.095\nsamples = 40\nvalue = [38, 2]\nclass = good", fillcolor="#e68843"] ;
413 -> 485 ;
486 [label="liveness <= 0.535\ngini = 0.05\nsamples = 39\nvalue = [38, 1]\nclass = good", fillcolor="#e6843e"] ;
485 -> 486 ;
487 [label="gini = 0.0\nsamples = 38\nvalue = [38, 0]\nclass = good", fillcolor="#e58139"] ;
486 -> 487 ;
488 [label="gini = 0.0\nsamples = 1\nvalue = [0, 1]\nclass = bad", fillcolor="#399de5"] ;
486 -> 488 ;
489 [label="gini = 0.0\nsamples = 1\nvalue = [0, 1]\nclass = bad", fillcolor="#399de5"] ;
485 -> 489 ;
490 [label="energy <= 0.124\ngini = 0.442\nsamples = 2484\nvalue = [1666, 818]\nclass = good", fillcolor="#f2bf9a"] ;
406 -> 490 ;
491 [label="loudness <= -9.589\ngini = 0.413\nsamples = 828\nvalue = [587, 241]\nclass = good", fillcolor="#f0b58a"] ;
490 -> 491 ;
492 [label="tempo <= 0.741\ngini = 0.35\nsamples = 350\nvalue = [271, 79]\nclass = good", fillcolor="#eda673"] ;
491 -> 492 ;
493 [label="danceability <= 289640.0\ngini = 0.32\nsamples = 310\nvalue = [248, 62]\nclass = good", fillcolor="#eca06a"] ;
492 -> 493 ;
494 [label="instrumentalness <= 0.417\ngini = 0.349\nsamples = 240\nvalue = [186, 54]\nclass = good", fillcolor="#eda672"] ;
493 -> 494 ;
495 [label="energy <= 0.066\ngini = 0.071\nsamples = 27\nvalue = [26, 1]\nclass = good", fillcolor="#e68641"] ;
494 -> 495 ;
496 [label="gini = 0.0\nsamples = 25\nvalue = [25, 0]\nclass = good", fillcolor="#e58139"] ;
495 -> 496 ;
497 [label="loudness <= -11.632\ngini = 0.5\nsamples = 2\nvalue = [1, 1]\nclass = good", fillcolor="#ffffff"] ;
495 -> 497 ;
498 [label="gini = 0.0\nsamples = 1\nvalue = [0, 1]\nclass = bad", fillcolor="#399de5"] ;
497 -> 498 ;
499 [label="gini = 0.0\nsamples = 1\nvalue = [1, 0]\nclass = good", fillcolor="#e58139"] ;
497 -> 499 ;
500 [label="danceability <= 285163.0\ngini = 0.374\nsamples = 213\nvalue = [160, 53]\nclass = good", fillcolor="#eeab7b"] ;
494 -> 500 ;
501 [label="tempo <= 0.608\ngini = 0.367\nsamples = 211\nvalue = [160, 51]\nclass = good", fillcolor="#eda978"] ;
500 -> 501 ;
502 [label="energy <= 0.114\ngini = 0.403\nsamples = 161\nvalue = [116, 45]\nclass = good", fillcolor="#efb286"] ;
501 -> 502 ;
503 [label="instrumentalness <= 0.908\ngini = 0.39\nsamples = 158\nvalue = [116, 42]\nclass = good", fillcolor="#eeaf81"] ;
502 -> 503 ;
504 [label="key <= 0.72\ngini = 0.37\nsamples = 151\nvalue = [114, 37]\nclass = good", fillcolor="#edaa79"] ;
503 -> 504 ;
505 [label="energy <= 0.002\ngini = 0.341\nsamples = 133\nvalue = [104, 29]\nclass = good", fillcolor="#eca470"] ;
504 -> 505 ;
506 [label="gini = 0.0\nsamples = 14\nvalue = [14, 0]\nclass = good", fillcolor="#e58139"] ;
505 -> 506 ;
507 [label="instrumentalness <= 0.56\ngini = 0.369\nsamples = 119\nvalue = [90, 29]\nclass = good", fillcolor="#edaa79"] ;
505 -> 507 ;
508 [label="key <= 0.56\ngini = 0.464\nsamples = 30\nvalue = [19, 11]\nclass = good", fillcolor="#f4caac"] ;
507 -> 508 ;
509 [label="song_popularity <= 3.5\ngini = 0.417\nsamples = 27\nvalue = [19, 8]\nclass = good", fillcolor="#f0b68c"] ;
508 -> 509 ;
510 [label="gini = 0.0\nsamples = 8\nvalue = [8, 0]\nclass = good", fillcolor="#e58139"] ;
509 -> 510 ;
511 [label="song_popularity <= 4.5\ngini = 0.488\nsamples = 19\nvalue = [11, 8]\nclass = good", fillcolor="#f8ddc9"] ;
509 -> 511 ;
512 [label="gini = 0.0\nsamples = 2\nvalue = [0, 2]\nclass = bad", fillcolor="#399de5"] ;
511 -> 512 ;
513 [label="liveness <= 0.122\ngini = 0.457\nsamples = 17\nvalue = [11, 6]\nclass = good", fillcolor="#f3c6a5"] ;
511 -> 513 ;
514 [label="liveness <= 0.094\ngini = 0.32\nsamples = 10\nvalue = [8, 2]\nclass = good", fillcolor="#eca06a"] ;
513 -> 514 ;
515 [label="speechiness <= 135.017\ngini = 0.444\nsamples = 3\nvalue = [1, 2]\nclass = bad", fillcolor="#9ccef2"] ;
514 -> 515 ;
516 [label="gini = 0.0\nsamples = 1\nvalue = [0, 1]\nclass = bad", fillcolor="#399de5"] ;
515 -> 516 ;
517 [label="gini = 0.5\nsamples = 2\nvalue = [1, 1]\nclass = good", fillcolor="#ffffff"] ;
515 -> 517 ;
518 [label="gini = 0.0\nsamples = 7\nvalue = [7, 0]\nclass = good", fillcolor="#e58139"] ;
514 -> 518 ;
519 [label="key <= 0.429\ngini = 0.49\nsamples = 7\nvalue = [3, 4]\nclass = bad", fillcolor="#cee6f8"] ;
513 -> 519 ;
520 [label="gini = 0.0\nsamples = 2\nvalue = [2, 0]\nclass = good", fillcolor="#e58139"] ;
519 -> 520 ;
521 [label="instrumentalness <= 0.543\ngini = 0.32\nsamples = 5\nvalue = [1, 4]\nclass = bad", fillcolor="#6ab6ec"] ;
519 -> 521 ;
522 [label="gini = 0.0\nsamples = 3\nvalue = [0, 3]\nclass = bad", fillcolor="#399de5"] ;
521 -> 522 ;
523 [label="gini = 0.5\nsamples = 2\nvalue = [1, 1]\nclass = good", fillcolor="#ffffff"] ;
521 -> 523 ;
524 [label="gini = 0.0\nsamples = 3\nvalue = [0, 3]\nclass = bad", fillcolor="#399de5"] ;
508 -> 524 ;
525 [label="liveness <= 0.242\ngini = 0.323\nsamples = 89\nvalue = [71, 18]\nclass = good", fillcolor="#eca16b"] ;
507 -> 525 ;
526 [label="instrumentalness <= 0.662\ngini = 0.266\nsamples = 76\nvalue = [64, 12]\nclass = good", fillcolor="#ea995e"] ;
525 -> 526 ;
527 [label="gini = 0.0\nsamples = 26\nvalue = [26, 0]\nclass = good", fillcolor="#e58139"] ;
526 -> 527 ;
528 [label="energy <= 0.006\ngini = 0.365\nsamples = 50\nvalue = [38, 12]\nclass = good", fillcolor="#eda978"] ;
526 -> 528 ;
529 [label="key <= 0.52\ngini = 0.444\nsamples = 6\nvalue = [2, 4]\nclass = bad", fillcolor="#9ccef2"] ;
528 -> 529 ;
530 [label="gini = 0.0\nsamples = 3\nvalue = [0, 3]\nclass = bad", fillcolor="#399de5"] ;
529 -> 530 ;
531 [label="mode <= 0.064\ngini = 0.444\nsamples = 3\nvalue = [2, 1]\nclass = good", fillcolor="#f2c09c"] ;
529 -> 531 ;
532 [label="gini = 0.0\nsamples = 1\nvalue = [0, 1]\nclass = bad", fillcolor="#399de5"] ;
531 -> 532 ;
533 [label="gini = 0.0\nsamples = 2\nvalue = [2, 0]\nclass = good", fillcolor="#e58139"] ;
531 -> 533 ;
534 [label="loudness <= -9.778\ngini = 0.298\nsamples = 44\nvalue = [36, 8]\nclass = good", fillcolor="#eb9d65"] ;
528 -> 534 ;
535 [label="speechiness <= 76.642\ngini = 0.25\nsamples = 41\nvalue = [35, 6]\nclass = good", fillcolor="#e9975b"] ;
534 -> 535 ;
536 [label="gini = 0.0\nsamples = 1\nvalue = [0, 1]\nclass = bad", fillcolor="#399de5"] ;
535 -> 536 ;
537 [label="instrumentalness <= 0.667\ngini = 0.219\nsamples = 40\nvalue = [35, 5]\nclass = good", fillcolor="#e99355"] ;
535 -> 537 ;
538 [label="gini = 0.0\nsamples = 1\nvalue = [0, 1]\nclass = bad", fillcolor="#399de5"] ;
537 -> 538 ;
539 [label="mode <= 0.269\ngini = 0.184\nsamples = 39\nvalue = [35, 4]\nclass = good", fillcolor="#e88f50"] ;
537 -> 539 ;
540 [label="song_popularity <= 0.5\ngini = 0.061\nsamples = 32\nvalue = [31, 1]\nclass = good", fillcolor="#e6853f"] ;
539 -> 540 ;
541 [label="speechiness <= 91.285\ngini = 0.5\nsamples = 2\nvalue = [1, 1]\nclass = good", fillcolor="#ffffff"] ;
540 -> 541 ;
542 [label="gini = 0.0\nsamples = 1\nvalue = [1, 0]\nclass = good", fillcolor="#e58139"] ;
541 -> 542 ;
543 [label="gini = 0.0\nsamples = 1\nvalue = [0, 1]\nclass = bad", fillcolor="#399de5"] ;
541 -> 543 ;
544 [label="gini = 0.0\nsamples = 30\nvalue = [30, 0]\nclass = good", fillcolor="#e58139"] ;
540 -> 544 ;
545 [label="key <= 0.422\ngini = 0.49\nsamples = 7\nvalue = [4, 3]\nclass = good", fillcolor="#f8e0ce"] ;
539 -> 545 ;
546 [label="danceability <= 190906.5\ngini = 0.375\nsamples = 4\nvalue = [1, 3]\nclass = bad", fillcolor="#7bbeee"] ;
545 -> 546 ;
547 [label="gini = 0.0\nsamples = 1\nvalue = [1, 0]\nclass = good", fillcolor="#e58139"] ;
546 -> 547 ;
548 [label="gini = 0.0\nsamples = 3\nvalue = [0, 3]\nclass = bad", fillcolor="#399de5"] ;
546 -> 548 ;
549 [label="gini = 0.0\nsamples = 3\nvalue = [3, 0]\nclass = good", fillcolor="#e58139"] ;
545 -> 549 ;
550 [label="energy <= 0.056\ngini = 0.444\nsamples = 3\nvalue = [1, 2]\nclass = bad", fillcolor="#9ccef2"] ;
534 -> 550 ;
551 [label="gini = 0.0\nsamples = 2\nvalue = [0, 2]\nclass = bad", fillcolor="#399de5"] ;
550 -> 551 ;
552 [label="gini = 0.0\nsamples = 1\nvalue = [1, 0]\nclass = good", fillcolor="#e58139"] ;
550 -> 552 ;
553 [label="danceability <= 209952.0\ngini = 0.497\nsamples = 13\nvalue = [7, 6]\nclass = good", fillcolor="#fbede3"] ;
525 -> 553 ;
554 [label="gini = 0.0\nsamples = 4\nvalue = [0, 4]\nclass = bad", fillcolor="#399de5"] ;
553 -> 554 ;
555 [label="loudness <= -10.326\ngini = 0.346\nsamples = 9\nvalue = [7, 2]\nclass = good", fillcolor="#eca572"] ;
553 -> 555 ;
556 [label="gini = 0.0\nsamples = 7\nvalue = [7, 0]\nclass = good", fillcolor="#e58139"] ;
555 -> 556 ;
557 [label="gini = 0.0\nsamples = 2\nvalue = [0, 2]\nclass = bad", fillcolor="#399de5"] ;
555 -> 557 ;
558 [label="speechiness <= 137.073\ngini = 0.494\nsamples = 18\nvalue = [10, 8]\nclass = good", fillcolor="#fae6d7"] ;
504 -> 558 ;
559 [label="instrumentalness <= 0.524\ngini = 0.444\nsamples = 12\nvalue = [4, 8]\nclass = bad", fillcolor="#9ccef2"] ;
558 -> 559 ;
560 [label="gini = 0.0\nsamples = 3\nvalue = [3, 0]\nclass = good", fillcolor="#e58139"] ;
559 -> 560 ;
561 [label="tempo <= 0.306\ngini = 0.198\nsamples = 9\nvalue = [1, 8]\nclass = bad", fillcolor="#52a9e8"] ;
559 -> 561 ;
562 [label="gini = 0.0\nsamples = 1\nvalue = [1, 0]\nclass = good", fillcolor="#e58139"] ;
561 -> 562 ;
563 [label="gini = 0.0\nsamples = 8\nvalue = [0, 8]\nclass = bad", fillcolor="#399de5"] ;
561 -> 563 ;
564 [label="gini = 0.0\nsamples = 6\nvalue = [6, 0]\nclass = good", fillcolor="#e58139"] ;
558 -> 564 ;
565 [label="key <= 0.445\ngini = 0.408\nsamples = 7\nvalue = [2, 5]\nclass = bad", fillcolor="#88c4ef"] ;
503 -> 565 ;
566 [label="gini = 0.0\nsamples = 2\nvalue = [2, 0]\nclass = good", fillcolor="#e58139"] ;
565 -> 566 ;
567 [label="gini = 0.0\nsamples = 5\nvalue = [0, 5]\nclass = bad", fillcolor="#399de5"] ;
565 -> 567 ;
568 [label="gini = 0.0\nsamples = 3\nvalue = [0, 3]\nclass = bad", fillcolor="#399de5"] ;
502 -> 568 ;
569 [label="liveness <= 0.053\ngini = 0.211\nsamples = 50\nvalue = [44, 6]\nclass = good", fillcolor="#e99254"] ;
501 -> 569 ;
570 [label="instrumentalness <= 0.81\ngini = 0.48\nsamples = 5\nvalue = [2, 3]\nclass = bad", fillcolor="#bddef6"] ;
569 -> 570 ;
571 [label="gini = 0.0\nsamples = 3\nvalue = [0, 3]\nclass = bad", fillcolor="#399de5"] ;
570 -> 571 ;
572 [label="gini = 0.0\nsamples = 2\nvalue = [2, 0]\nclass = good", fillcolor="#e58139"] ;
570 -> 572 ;
573 [label="mode <= 0.028\ngini = 0.124\nsamples = 45\nvalue = [42, 3]\nclass = good", fillcolor="#e78a47"] ;
569 -> 573 ;
574 [label="gini = 0.0\nsamples = 1\nvalue = [0, 1]\nclass = bad", fillcolor="#399de5"] ;
573 -> 574 ;
575 [label="instrumentalness <= 0.558\ngini = 0.087\nsamples = 44\nvalue = [42, 2]\nclass = good", fillcolor="#e68742"] ;
573 -> 575 ;
576 [label="loudness <= -13.053\ngini = 0.408\nsamples = 7\nvalue = [5, 2]\nclass = good", fillcolor="#efb388"] ;
575 -> 576 ;
577 [label="gini = 0.0\nsamples = 1\nvalue = [0, 1]\nclass = bad", fillcolor="#399de5"] ;
576 -> 577 ;
578 [label="tempo <= 0.727\ngini = 0.278\nsamples = 6\nvalue = [5, 1]\nclass = good", fillcolor="#ea9a61"] ;
576 -> 578 ;
579 [label="gini = 0.0\nsamples = 5\nvalue = [5, 0]\nclass = good", fillcolor="#e58139"] ;
578 -> 579 ;
580 [label="gini = 0.0\nsamples = 1\nvalue = [0, 1]\nclass = bad", fillcolor="#399de5"] ;
578 -> 580 ;
581 [label="gini = 0.0\nsamples = 37\nvalue = [37, 0]\nclass = good", fillcolor="#e58139"] ;
575 -> 581 ;
582 [label="gini = 0.0\nsamples = 2\nvalue = [0, 2]\nclass = bad", fillcolor="#399de5"] ;
500 -> 582 ;
583 [label="instrumentalness <= 0.372\ngini = 0.202\nsamples = 70\nvalue = [62, 8]\nclass = good", fillcolor="#e89153"] ;
493 -> 583 ;
584 [label="tempo <= 0.377\ngini = 0.375\nsamples = 4\nvalue = [1, 3]\nclass = bad", fillcolor="#7bbeee"] ;
583 -> 584 ;
585 [label="gini = 0.0\nsamples = 1\nvalue = [1, 0]\nclass = good", fillcolor="#e58139"] ;
584 -> 585 ;
586 [label="gini = 0.0\nsamples = 3\nvalue = [0, 3]\nclass = bad", fillcolor="#399de5"] ;
584 -> 586 ;
587 [label="energy <= 0.12\ngini = 0.14\nsamples = 66\nvalue = [61, 5]\nclass = good", fillcolor="#e78b49"] ;
583 -> 587 ;
588 [label="loudness <= -13.982\ngini = 0.116\nsamples = 65\nvalue = [61, 4]\nclass = good", fillcolor="#e78946"] ;
587 -> 588 ;
589 [label="gini = 0.0\nsamples = 1\nvalue = [0, 1]\nclass = bad", fillcolor="#399de5"] ;
588 -> 589 ;
590 [label="key <= 0.473\ngini = 0.089\nsamples = 64\nvalue = [61, 3]\nclass = good", fillcolor="#e68743"] ;
588 -> 590 ;
591 [label="instrumentalness <= 0.557\ngini = 0.305\nsamples = 16\nvalue = [13, 3]\nclass = good", fillcolor="#eb9e67"] ;
590 -> 591 ;
592 [label="tempo <= 0.1\ngini = 0.5\nsamples = 6\nvalue = [3, 3]\nclass = good", fillcolor="#ffffff"] ;
591 -> 592 ;
593 [label="gini = 0.0\nsamples = 2\nvalue = [2, 0]\nclass = good", fillcolor="#e58139"] ;
592 -> 593 ;
594 [label="energy <= 0.0\ngini = 0.375\nsamples = 4\nvalue = [1, 3]\nclass = bad", fillcolor="#7bbeee"] ;
592 -> 594 ;
595 [label="gini = 0.0\nsamples = 1\nvalue = [1, 0]\nclass = good", fillcolor="#e58139"] ;
594 -> 595 ;
596 [label="gini = 0.0\nsamples = 3\nvalue = [0, 3]\nclass = bad", fillcolor="#399de5"] ;
594 -> 596 ;
597 [label="gini = 0.0\nsamples = 10\nvalue = [10, 0]\nclass = good", fillcolor="#e58139"] ;
591 -> 597 ;
598 [label="gini = 0.0\nsamples = 48\nvalue = [48, 0]\nclass = good", fillcolor="#e58139"] ;
590 -> 598 ;
599 [label="gini = 0.0\nsamples = 1\nvalue = [0, 1]\nclass = bad", fillcolor="#399de5"] ;
587 -> 599 ;
600 [label="speechiness <= 120.094\ngini = 0.489\nsamples = 40\nvalue = [23, 17]\nclass = good", fillcolor="#f8decb"] ;
492 -> 600 ;
601 [label="speechiness <= 100.542\ngini = 0.428\nsamples = 29\nvalue = [20, 9]\nclass = good", fillcolor="#f1ba92"] ;
600 -> 601 ;
602 [label="song_popularity <= 8.0\ngini = 0.375\nsamples = 8\nvalue = [2, 6]\nclass = bad", fillcolor="#7bbeee"] ;
601 -> 602 ;
603 [label="gini = 0.0\nsamples = 6\nvalue = [0, 6]\nclass = bad", fillcolor="#399de5"] ;
602 -> 603 ;
604 [label="gini = 0.0\nsamples = 2\nvalue = [2, 0]\nclass = good", fillcolor="#e58139"] ;
602 -> 604 ;
605 [label="mode <= 0.085\ngini = 0.245\nsamples = 21\nvalue = [18, 3]\nclass = good", fillcolor="#e9965a"] ;
601 -> 605 ;
606 [label="gini = 0.0\nsamples = 13\nvalue = [13, 0]\nclass = good", fillcolor="#e58139"] ;
605 -> 606 ;
607 [label="tempo <= 0.799\ngini = 0.469\nsamples = 8\nvalue = [5, 3]\nclass = good", fillcolor="#f5cdb0"] ;
605 -> 607 ;
608 [label="liveness <= 0.049\ngini = 0.278\nsamples = 6\nvalue = [5, 1]\nclass = good", fillcolor="#ea9a61"] ;
607 -> 608 ;
609 [label="gini = 0.5\nsamples = 2\nvalue = [1, 1]\nclass = good", fillcolor="#ffffff"] ;
608 -> 609 ;
610 [label="gini = 0.0\nsamples = 4\nvalue = [4, 0]\nclass = good", fillcolor="#e58139"] ;
608 -> 610 ;
611 [label="gini = 0.0\nsamples = 2\nvalue = [0, 2]\nclass = bad", fillcolor="#399de5"] ;
607 -> 611 ;
612 [label="energy <= 0.065\ngini = 0.397\nsamples = 11\nvalue = [3, 8]\nclass = bad", fillcolor="#83c2ef"] ;
600 -> 612 ;
613 [label="tempo <= 0.792\ngini = 0.198\nsamples = 9\nvalue = [1, 8]\nclass = bad", fillcolor="#52a9e8"] ;
612 -> 613 ;
614 [label="gini = 0.0\nsamples = 7\nvalue = [0, 7]\nclass = bad", fillcolor="#399de5"] ;
613 -> 614 ;
615 [label="energy <= 0.012\ngini = 0.5\nsamples = 2\nvalue = [1, 1]\nclass = good", fillcolor="#ffffff"] ;
613 -> 615 ;
616 [label="gini = 0.0\nsamples = 1\nvalue = [0, 1]\nclass = bad", fillcolor="#399de5"] ;
615 -> 616 ;
617 [label="gini = 0.0\nsamples = 1\nvalue = [1, 0]\nclass = good", fillcolor="#e58139"] ;
615 -> 617 ;
618 [label="gini = 0.0\nsamples = 2\nvalue = [2, 0]\nclass = good", fillcolor="#e58139"] ;
612 -> 618 ;
619 [label="instrumentalness <= 0.279\ngini = 0.448\nsamples = 478\nvalue = [316, 162]\nclass = good", fillcolor="#f2c29f"] ;
491 -> 619 ;
620 [label="gini = 0.0\nsamples = 4\nvalue = [0, 4]\nclass = bad", fillcolor="#399de5"] ;
619 -> 620 ;
621 [label="loudness <= -7.949\ngini = 0.444\nsamples = 474\nvalue = [316, 158]\nclass = good", fillcolor="#f2c09c"] ;
619 -> 621 ;
622 [label="energy <= 0.003\ngini = 0.452\nsamples = 453\nvalue = [297, 156]\nclass = good", fillcolor="#f3c3a1"] ;
621 -> 622 ;
623 [label="instrumentalness <= 0.577\ngini = 0.354\nsamples = 74\nvalue = [57, 17]\nclass = good", fillcolor="#eda774"] ;
622 -> 623 ;
624 [label="liveness <= 0.436\ngini = 0.48\nsamples = 30\nvalue = [18, 12]\nclass = good", fillcolor="#f6d5bd"] ;
623 -> 624 ;
625 [label="song_popularity <= 6.5\ngini = 0.444\nsamples = 27\nvalue = [18, 9]\nclass = good", fillcolor="#f2c09c"] ;
624 -> 625 ;
626 [label="key <= 0.701\ngini = 0.165\nsamples = 11\nvalue = [10, 1]\nclass = good", fillcolor="#e88e4d"] ;
625 -> 626 ;
627 [label="energy <= 0.001\ngini = 0.5\nsamples = 2\nvalue = [1, 1]\nclass = good", fillcolor="#ffffff"] ;
626 -> 627 ;
628 [label="gini = 0.0\nsamples = 1\nvalue = [0, 1]\nclass = bad", fillcolor="#399de5"] ;
627 -> 628 ;
629 [label="gini = 0.0\nsamples = 1\nvalue = [1, 0]\nclass = good", fillcolor="#e58139"] ;
627 -> 629 ;
630 [label="gini = 0.0\nsamples = 9\nvalue = [9, 0]\nclass = good", fillcolor="#e58139"] ;
626 -> 630 ;
631 [label="liveness <= 0.133\ngini = 0.5\nsamples = 16\nvalue = [8, 8]\nclass = good", fillcolor="#ffffff"] ;
625 -> 631 ;
632 [label="mode <= 0.043\ngini = 0.42\nsamples = 10\nvalue = [3, 7]\nclass = bad", fillcolor="#8ec7f0"] ;
631 -> 632 ;
633 [label="gini = 0.0\nsamples = 6\nvalue = [0, 6]\nclass = bad", fillcolor="#399de5"] ;
632 -> 633 ;
634 [label="instrumentalness <= 0.447\ngini = 0.375\nsamples = 4\nvalue = [3, 1]\nclass = good", fillcolor="#eeab7b"] ;
632 -> 634 ;
635 [label="gini = 0.0\nsamples = 3\nvalue = [3, 0]\nclass = good", fillcolor="#e58139"] ;
634 -> 635 ;
636 [label="gini = 0.0\nsamples = 1\nvalue = [0, 1]\nclass = bad", fillcolor="#399de5"] ;
634 -> 636 ;
637 [label="tempo <= 0.404\ngini = 0.278\nsamples = 6\nvalue = [5, 1]\nclass = good", fillcolor="#ea9a61"] ;
631 -> 637 ;
638 [label="gini = 0.0\nsamples = 1\nvalue = [0, 1]\nclass = bad", fillcolor="#399de5"] ;
637 -> 638 ;
639 [label="gini = 0.0\nsamples = 5\nvalue = [5, 0]\nclass = good", fillcolor="#e58139"] ;
637 -> 639 ;
640 [label="gini = 0.0\nsamples = 3\nvalue = [0, 3]\nclass = bad", fillcolor="#399de5"] ;
624 -> 640 ;
641 [label="speechiness <= 161.049\ngini = 0.201\nsamples = 44\nvalue = [39, 5]\nclass = good", fillcolor="#e89152"] ;
623 -> 641 ;
642 [label="song_popularity <= 10.5\ngini = 0.169\nsamples = 43\nvalue = [39, 4]\nclass = good", fillcolor="#e88e4d"] ;
641 -> 642 ;
643 [label="mode <= 0.03\ngini = 0.097\nsamples = 39\nvalue = [37, 2]\nclass = good", fillcolor="#e68844"] ;
642 -> 643 ;
644 [label="song_popularity <= 3.0\ngini = 0.5\nsamples = 2\nvalue = [1, 1]\nclass = good", fillcolor="#ffffff"] ;
643 -> 644 ;
645 [label="gini = 0.0\nsamples = 1\nvalue = [0, 1]\nclass = bad", fillcolor="#399de5"] ;
644 -> 645 ;
646 [label="gini = 0.0\nsamples = 1\nvalue = [1, 0]\nclass = good", fillcolor="#e58139"] ;
644 -> 646 ;
647 [label="danceability <= 186553.5\ngini = 0.053\nsamples = 37\nvalue = [36, 1]\nclass = good", fillcolor="#e6843e"] ;
643 -> 647 ;
648 [label="loudness <= -8.03\ngini = 0.444\nsamples = 3\nvalue = [2, 1]\nclass = good", fillcolor="#f2c09c"] ;
647 -> 648 ;
649 [label="gini = 0.0\nsamples = 2\nvalue = [2, 0]\nclass = good", fillcolor="#e58139"] ;
648 -> 649 ;
650 [label="gini = 0.0\nsamples = 1\nvalue = [0, 1]\nclass = bad", fillcolor="#399de5"] ;
648 -> 650 ;
651 [label="gini = 0.0\nsamples = 34\nvalue = [34, 0]\nclass = good", fillcolor="#e58139"] ;
647 -> 651 ;
652 [label="loudness <= -8.62\ngini = 0.5\nsamples = 4\nvalue = [2, 2]\nclass = good", fillcolor="#ffffff"] ;
642 -> 652 ;
653 [label="gini = 0.0\nsamples = 2\nvalue = [0, 2]\nclass = bad", fillcolor="#399de5"] ;
652 -> 653 ;
654 [label="gini = 0.0\nsamples = 2\nvalue = [2, 0]\nclass = good", fillcolor="#e58139"] ;
652 -> 654 ;
655 [label="gini = 0.0\nsamples = 1\nvalue = [0, 1]\nclass = bad", fillcolor="#399de5"] ;
641 -> 655 ;
656 [label="song_popularity <= 8.5\ngini = 0.464\nsamples = 379\nvalue = [240, 139]\nclass = good", fillcolor="#f4caac"] ;
622 -> 656 ;
657 [label="energy <= 0.12\ngini = 0.479\nsamples = 297\nvalue = [179, 118]\nclass = good", fillcolor="#f6d4bc"] ;
656 -> 657 ;
658 [label="danceability <= 248528.0\ngini = 0.483\nsamples = 290\nvalue = [172, 118]\nclass = good", fillcolor="#f7d7c1"] ;
657 -> 658 ;
659 [label="instrumentalness <= 0.865\ngini = 0.496\nsamples = 178\nvalue = [97, 81]\nclass = good", fillcolor="#fbeade"] ;
658 -> 659 ;
660 [label="instrumentalness <= 0.576\ngini = 0.5\nsamples = 158\nvalue = [81, 77]\nclass = good", fillcolor="#fef9f5"] ;
659 -> 660 ;
661 [label="song_popularity <= 7.5\ngini = 0.464\nsamples = 52\nvalue = [33, 19]\nclass = good", fillcolor="#f4caab"] ;
660 -> 661 ;
662 [label="instrumentalness <= 0.56\ngini = 0.488\nsamples = 45\nvalue = [26, 19]\nclass = good", fillcolor="#f8ddca"] ;
661 -> 662 ;
663 [label="tempo <= 0.204\ngini = 0.499\nsamples = 40\nvalue = [21, 19]\nclass = good", fillcolor="#fdf3ec"] ;
662 -> 663 ;
664 [label="energy <= 0.067\ngini = 0.219\nsamples = 8\nvalue = [1, 7]\nclass = bad", fillcolor="#55abe9"] ;
663 -> 664 ;
665 [label="gini = 0.0\nsamples = 7\nvalue = [0, 7]\nclass = bad", fillcolor="#399de5"] ;
664 -> 665 ;
666 [label="gini = 0.0\nsamples = 1\nvalue = [1, 0]\nclass = good", fillcolor="#e58139"] ;
664 -> 666 ;
667 [label="instrumentalness <= 0.549\ngini = 0.469\nsamples = 32\nvalue = [20, 12]\nclass = good", fillcolor="#f5cdb0"] ;
663 -> 667 ;
668 [label="liveness <= 0.06\ngini = 0.428\nsamples = 29\nvalue = [20, 9]\nclass = good", fillcolor="#f1ba92"] ;
667 -> 668 ;
669 [label="gini = 0.0\nsamples = 2\nvalue = [0, 2]\nclass = bad", fillcolor="#399de5"] ;
668 -> 669 ;
670 [label="mode <= 0.152\ngini = 0.384\nsamples = 27\nvalue = [20, 7]\nclass = good", fillcolor="#eead7e"] ;
668 -> 670 ;
671 [label="danceability <= 245104.0\ngini = 0.245\nsamples = 21\nvalue = [18, 3]\nclass = good", fillcolor="#e9965a"] ;
670 -> 671 ;
672 [label="danceability <= 186156.5\ngini = 0.18\nsamples = 20\nvalue = [18, 2]\nclass = good", fillcolor="#e88f4f"] ;
671 -> 672 ;
673 [label="instrumentalness <= 0.54\ngini = 0.5\nsamples = 4\nvalue = [2, 2]\nclass = good", fillcolor="#ffffff"] ;
672 -> 673 ;
674 [label="gini = 0.0\nsamples = 2\nvalue = [0, 2]\nclass = bad", fillcolor="#399de5"] ;
673 -> 674 ;
675 [label="gini = 0.0\nsamples = 2\nvalue = [2, 0]\nclass = good", fillcolor="#e58139"] ;
673 -> 675 ;
676 [label="gini = 0.0\nsamples = 16\nvalue = [16, 0]\nclass = good", fillcolor="#e58139"] ;
672 -> 676 ;
677 [label="gini = 0.0\nsamples = 1\nvalue = [0, 1]\nclass = bad", fillcolor="#399de5"] ;
671 -> 677 ;
678 [label="speechiness <= 78.766\ngini = 0.444\nsamples = 6\nvalue = [2, 4]\nclass = bad", fillcolor="#9ccef2"] ;
670 -> 678 ;
679 [label="gini = 0.0\nsamples = 2\nvalue = [2, 0]\nclass = good", fillcolor="#e58139"] ;
678 -> 679 ;
680 [label="gini = 0.0\nsamples = 4\nvalue = [0, 4]\nclass = bad", fillcolor="#399de5"] ;
678 -> 680 ;
681 [label="gini = 0.0\nsamples = 3\nvalue = [0, 3]\nclass = bad", fillcolor="#399de5"] ;
667 -> 681 ;
682 [label="gini = 0.0\nsamples = 5\nvalue = [5, 0]\nclass = good", fillcolor="#e58139"] ;
662 -> 682 ;
683 [label="gini = 0.0\nsamples = 7\nvalue = [7, 0]\nclass = good", fillcolor="#e58139"] ;
661 -> 683 ;
684 [label="tempo <= 0.253\ngini = 0.496\nsamples = 106\nvalue = [48, 58]\nclass = bad", fillcolor="#ddeefb"] ;
660 -> 684 ;
685 [label="instrumentalness <= 0.757\ngini = 0.401\nsamples = 18\nvalue = [13, 5]\nclass = good", fillcolor="#efb185"] ;
684 -> 685 ;
686 [label="mode <= 0.11\ngini = 0.496\nsamples = 11\nvalue = [6, 5]\nclass = good", fillcolor="#fbeade"] ;
685 -> 686 ;
687 [label="speechiness <= 117.967\ngini = 0.375\nsamples = 8\nvalue = [6, 2]\nclass = good", fillcolor="#eeab7b"] ;
686 -> 687 ;
688 [label="key <= 0.555\ngini = 0.444\nsamples = 3\nvalue = [1, 2]\nclass = bad", fillcolor="#9ccef2"] ;
687 -> 688 ;
689 [label="gini = 0.0\nsamples = 2\nvalue = [0, 2]\nclass = bad", fillcolor="#399de5"] ;
688 -> 689 ;
690 [label="gini = 0.0\nsamples = 1\nvalue = [1, 0]\nclass = good", fillcolor="#e58139"] ;
688 -> 690 ;
691 [label="gini = 0.0\nsamples = 5\nvalue = [5, 0]\nclass = good", fillcolor="#e58139"] ;
687 -> 691 ;
692 [label="gini = 0.0\nsamples = 3\nvalue = [0, 3]\nclass = bad", fillcolor="#399de5"] ;
686 -> 692 ;
693 [label="gini = 0.0\nsamples = 7\nvalue = [7, 0]\nclass = good", fillcolor="#e58139"] ;
685 -> 693 ;
694 [label="loudness <= -9.135\ngini = 0.479\nsamples = 88\nvalue = [35, 53]\nclass = bad", fillcolor="#bcdef6"] ;
684 -> 694 ;
695 [label="key <= 0.442\ngini = 0.208\nsamples = 17\nvalue = [2, 15]\nclass = bad", fillcolor="#53aae8"] ;
694 -> 695 ;
696 [label="mode <= 0.136\ngini = 0.444\nsamples = 3\nvalue = [2, 1]\nclass = good", fillcolor="#f2c09c"] ;
695 -> 696 ;
697 [label="gini = 0.0\nsamples = 1\nvalue = [0, 1]\nclass = bad", fillcolor="#399de5"] ;
696 -> 697 ;
698 [label="gini = 0.0\nsamples = 2\nvalue = [2, 0]\nclass = good", fillcolor="#e58139"] ;
696 -> 698 ;
699 [label="gini = 0.0\nsamples = 14\nvalue = [0, 14]\nclass = bad", fillcolor="#399de5"] ;
695 -> 699 ;
700 [label="song_popularity <= 6.5\ngini = 0.498\nsamples = 71\nvalue = [33, 38]\nclass = bad", fillcolor="#e5f2fc"] ;
694 -> 700 ;
701 [label="song_popularity <= 0.5\ngini = 0.496\nsamples = 53\nvalue = [29, 24]\nclass = good", fillcolor="#fbe9dd"] ;
700 -> 701 ;
702 [label="speechiness <= 136.426\ngini = 0.36\nsamples = 17\nvalue = [4, 13]\nclass = bad", fillcolor="#76bbed"] ;
701 -> 702 ;
703 [label="danceability <= 188820.0\ngini = 0.245\nsamples = 14\nvalue = [2, 12]\nclass = bad", fillcolor="#5aade9"] ;
702 -> 703 ;
704 [label="energy <= 0.031\ngini = 0.444\nsamples = 3\nvalue = [2, 1]\nclass = good", fillcolor="#f2c09c"] ;
703 -> 704 ;
705 [label="gini = 0.0\nsamples = 1\nvalue = [0, 1]\nclass = bad", fillcolor="#399de5"] ;
704 -> 705 ;
706 [label="gini = 0.0\nsamples = 2\nvalue = [2, 0]\nclass = good", fillcolor="#e58139"] ;
704 -> 706 ;
707 [label="gini = 0.0\nsamples = 11\nvalue = [0, 11]\nclass = bad", fillcolor="#399de5"] ;
703 -> 707 ;
708 [label="liveness <= 0.09\ngini = 0.444\nsamples = 3\nvalue = [2, 1]\nclass = good", fillcolor="#f2c09c"] ;
702 -> 708 ;
709 [label="gini = 0.0\nsamples = 1\nvalue = [0, 1]\nclass = bad", fillcolor="#399de5"] ;
708 -> 709 ;
710 [label="gini = 0.0\nsamples = 2\nvalue = [2, 0]\nclass = good", fillcolor="#e58139"] ;
708 -> 710 ;
711 [label="speechiness <= 121.974\ngini = 0.424\nsamples = 36\nvalue = [25, 11]\nclass = good", fillcolor="#f0b890"] ;
701 -> 711 ;
712 [label="energy <= 0.09\ngini = 0.219\nsamples = 24\nvalue = [21, 3]\nclass = good", fillcolor="#e99355"] ;
711 -> 712 ;
713 [label="instrumentalness <= 0.843\ngini = 0.091\nsamples = 21\nvalue = [20, 1]\nclass = good", fillcolor="#e68743"] ;
712 -> 713 ;
714 [label="gini = 0.0\nsamples = 19\nvalue = [19, 0]\nclass = good", fillcolor="#e58139"] ;
713 -> 714 ;
715 [label="mode <= 0.121\ngini = 0.5\nsamples = 2\nvalue = [1, 1]\nclass = good", fillcolor="#ffffff"] ;
713 -> 715 ;
716 [label="gini = 0.0\nsamples = 1\nvalue = [1, 0]\nclass = good", fillcolor="#e58139"] ;
715 -> 716 ;
717 [label="gini = 0.0\nsamples = 1\nvalue = [0, 1]\nclass = bad", fillcolor="#399de5"] ;
715 -> 717 ;
718 [label="liveness <= 0.11\ngini = 0.444\nsamples = 3\nvalue = [1, 2]\nclass = bad", fillcolor="#9ccef2"] ;
712 -> 718 ;
719 [label="gini = 0.0\nsamples = 1\nvalue = [1, 0]\nclass = good", fillcolor="#e58139"] ;
718 -> 719 ;
720 [label="gini = 0.0\nsamples = 2\nvalue = [0, 2]\nclass = bad", fillcolor="#399de5"] ;
718 -> 720 ;
721 [label="instrumentalness <= 0.639\ngini = 0.444\nsamples = 12\nvalue = [4, 8]\nclass = bad", fillcolor="#9ccef2"] ;
711 -> 721 ;
722 [label="gini = 0.0\nsamples = 4\nvalue = [4, 0]\nclass = good", fillcolor="#e58139"] ;
721 -> 722 ;
723 [label="gini = 0.0\nsamples = 8\nvalue = [0, 8]\nclass = bad", fillcolor="#399de5"] ;
721 -> 723 ;
724 [label="liveness <= 0.244\ngini = 0.346\nsamples = 18\nvalue = [4, 14]\nclass = bad", fillcolor="#72b9ec"] ;
700 -> 724 ;
725 [label="key <= 0.558\ngini = 0.133\nsamples = 14\nvalue = [1, 13]\nclass = bad", fillcolor="#48a5e7"] ;
724 -> 725 ;
726 [label="liveness <= 0.104\ngini = 0.5\nsamples = 2\nvalue = [1, 1]\nclass = good", fillcolor="#ffffff"] ;
725 -> 726 ;
727 [label="gini = 0.0\nsamples = 1\nvalue = [1, 0]\nclass = good", fillcolor="#e58139"] ;
726 -> 727 ;
728 [label="gini = 0.0\nsamples = 1\nvalue = [0, 1]\nclass = bad", fillcolor="#399de5"] ;
726 -> 728 ;
729 [label="gini = 0.0\nsamples = 12\nvalue = [0, 12]\nclass = bad", fillcolor="#399de5"] ;
725 -> 729 ;
730 [label="loudness <= -8.412\ngini = 0.375\nsamples = 4\nvalue = [3, 1]\nclass = good", fillcolor="#eeab7b"] ;
724 -> 730 ;
731 [label="gini = 0.0\nsamples = 1\nvalue = [0, 1]\nclass = bad", fillcolor="#399de5"] ;
730 -> 731 ;
732 [label="gini = 0.0\nsamples = 3\nvalue = [3, 0]\nclass = good", fillcolor="#e58139"] ;
730 -> 732 ;
733 [label="loudness <= -8.164\ngini = 0.32\nsamples = 20\nvalue = [16, 4]\nclass = good", fillcolor="#eca06a"] ;
659 -> 733 ;
734 [label="energy <= 0.088\ngini = 0.117\nsamples = 16\nvalue = [15, 1]\nclass = good", fillcolor="#e78946"] ;
733 -> 734 ;
735 [label="gini = 0.0\nsamples = 15\nvalue = [15, 0]\nclass = good", fillcolor="#e58139"] ;
734 -> 735 ;
736 [label="gini = 0.0\nsamples = 1\nvalue = [0, 1]\nclass = bad", fillcolor="#399de5"] ;
734 -> 736 ;
737 [label="acousticness <= 3.5\ngini = 0.375\nsamples = 4\nvalue = [1, 3]\nclass = bad", fillcolor="#7bbeee"] ;
733 -> 737 ;
738 [label="gini = 0.0\nsamples = 1\nvalue = [1, 0]\nclass = good", fillcolor="#e58139"] ;
737 -> 738 ;
739 [label="gini = 0.0\nsamples = 3\nvalue = [0, 3]\nclass = bad", fillcolor="#399de5"] ;
737 -> 739 ;
740 [label="energy <= 0.078\ngini = 0.442\nsamples = 112\nvalue = [75, 37]\nclass = good", fillcolor="#f2bf9b"] ;
658 -> 740 ;
741 [label="tempo <= 0.669\ngini = 0.399\nsamples = 91\nvalue = [66, 25]\nclass = good", fillcolor="#efb184"] ;
740 -> 741 ;
742 [label="energy <= 0.02\ngini = 0.433\nsamples = 79\nvalue = [54, 25]\nclass = good", fillcolor="#f1bb95"] ;
741 -> 742 ;
743 [label="energy <= 0.016\ngini = 0.496\nsamples = 33\nvalue = [18, 15]\nclass = good", fillcolor="#fbeade"] ;
742 -> 743 ;
744 [label="speechiness <= 129.976\ngini = 0.435\nsamples = 25\nvalue = [17, 8]\nclass = good", fillcolor="#f1bc96"] ;
743 -> 744 ;
745 [label="key <= 0.493\ngini = 0.498\nsamples = 17\nvalue = [9, 8]\nclass = good", fillcolor="#fcf1e9"] ;
744 -> 745 ;
746 [label="gini = 0.0\nsamples = 4\nvalue = [4, 0]\nclass = good", fillcolor="#e58139"] ;
745 -> 746 ;
747 [label="tempo <= 0.611\ngini = 0.473\nsamples = 13\nvalue = [5, 8]\nclass = bad", fillcolor="#b5daf5"] ;
745 -> 747 ;
748 [label="energy <= 0.01\ngini = 0.397\nsamples = 11\nvalue = [3, 8]\nclass = bad", fillcolor="#83c2ef"] ;
747 -> 748 ;
749 [label="gini = 0.0\nsamples = 5\nvalue = [0, 5]\nclass = bad", fillcolor="#399de5"] ;
748 -> 749 ;
750 [label="tempo <= 0.553\ngini = 0.5\nsamples = 6\nvalue = [3, 3]\nclass = good", fillcolor="#ffffff"] ;
748 -> 750 ;
751 [label="gini = 0.0\nsamples = 3\nvalue = [3, 0]\nclass = good", fillcolor="#e58139"] ;
750 -> 751 ;
752 [label="gini = 0.0\nsamples = 3\nvalue = [0, 3]\nclass = bad", fillcolor="#399de5"] ;
750 -> 752 ;
753 [label="gini = 0.0\nsamples = 2\nvalue = [2, 0]\nclass = good", fillcolor="#e58139"] ;
747 -> 753 ;
754 [label="gini = 0.0\nsamples = 8\nvalue = [8, 0]\nclass = good", fillcolor="#e58139"] ;
744 -> 754 ;
755 [label="loudness <= -9.115\ngini = 0.219\nsamples = 8\nvalue = [1, 7]\nclass = bad", fillcolor="#55abe9"] ;
743 -> 755 ;
756 [label="gini = 0.0\nsamples = 1\nvalue = [1, 0]\nclass = good", fillcolor="#e58139"] ;
755 -> 756 ;
757 [label="gini = 0.0\nsamples = 7\nvalue = [0, 7]\nclass = bad", fillcolor="#399de5"] ;
755 -> 757 ;
758 [label="loudness <= -9.304\ngini = 0.34\nsamples = 46\nvalue = [36, 10]\nclass = good", fillcolor="#eca470"] ;
742 -> 758 ;
759 [label="energy <= 0.048\ngini = 0.444\nsamples = 6\nvalue = [2, 4]\nclass = bad", fillcolor="#9ccef2"] ;
758 -> 759 ;
760 [label="gini = 0.0\nsamples = 2\nvalue = [2, 0]\nclass = good", fillcolor="#e58139"] ;
759 -> 760 ;
761 [label="gini = 0.0\nsamples = 4\nvalue = [0, 4]\nclass = bad", fillcolor="#399de5"] ;
759 -> 761 ;
762 [label="mode <= 0.183\ngini = 0.255\nsamples = 40\nvalue = [34, 6]\nclass = good", fillcolor="#ea975c"] ;
758 -> 762 ;
763 [label="instrumentalness <= 0.767\ngini = 0.064\nsamples = 30\nvalue = [29, 1]\nclass = good", fillcolor="#e68540"] ;
762 -> 763 ;
764 [label="gini = 0.0\nsamples = 27\nvalue = [27, 0]\nclass = good", fillcolor="#e58139"] ;
763 -> 764 ;
765 [label="mode <= 0.037\ngini = 0.444\nsamples = 3\nvalue = [2, 1]\nclass = good", fillcolor="#f2c09c"] ;
763 -> 765 ;
766 [label="gini = 0.0\nsamples = 1\nvalue = [0, 1]\nclass = bad", fillcolor="#399de5"] ;
765 -> 766 ;
767 [label="gini = 0.0\nsamples = 2\nvalue = [2, 0]\nclass = good", fillcolor="#e58139"] ;
765 -> 767 ;
768 [label="song_popularity <= 1.5\ngini = 0.5\nsamples = 10\nvalue = [5, 5]\nclass = good", fillcolor="#ffffff"] ;
762 -> 768 ;
769 [label="gini = 0.0\nsamples = 3\nvalue = [0, 3]\nclass = bad", fillcolor="#399de5"] ;
768 -> 769 ;
770 [label="speechiness <= 103.956\ngini = 0.408\nsamples = 7\nvalue = [5, 2]\nclass = good", fillcolor="#efb388"] ;
768 -> 770 ;
771 [label="instrumentalness <= 0.584\ngini = 0.278\nsamples = 6\nvalue = [5, 1]\nclass = good", fillcolor="#ea9a61"] ;
770 -> 771 ;
772 [label="gini = 0.444\nsamples = 3\nvalue = [2, 1]\nclass = good", fillcolor="#f2c09c"] ;
771 -> 772 ;
773 [label="gini = 0.0\nsamples = 3\nvalue = [3, 0]\nclass = good", fillcolor="#e58139"] ;
771 -> 773 ;
774 [label="gini = 0.0\nsamples = 1\nvalue = [0, 1]\nclass = bad", fillcolor="#399de5"] ;
770 -> 774 ;
775 [label="gini = 0.0\nsamples = 12\nvalue = [12, 0]\nclass = good", fillcolor="#e58139"] ;
741 -> 775 ;
776 [label="key <= 0.539\ngini = 0.49\nsamples = 21\nvalue = [9, 12]\nclass = bad", fillcolor="#cee6f8"] ;
740 -> 776 ;
777 [label="gini = 0.0\nsamples = 4\nvalue = [4, 0]\nclass = good", fillcolor="#e58139"] ;
776 -> 777 ;
778 [label="speechiness <= 124.029\ngini = 0.415\nsamples = 17\nvalue = [5, 12]\nclass = bad", fillcolor="#8bc6f0"] ;
776 -> 778 ;
779 [label="gini = 0.0\nsamples = 9\nvalue = [0, 9]\nclass = bad", fillcolor="#399de5"] ;
778 -> 779 ;
780 [label="key <= 0.75\ngini = 0.469\nsamples = 8\nvalue = [5, 3]\nclass = good", fillcolor="#f5cdb0"] ;
778 -> 780 ;
781 [label="liveness <= 0.113\ngini = 0.48\nsamples = 5\nvalue = [2, 3]\nclass = bad", fillcolor="#bddef6"] ;
780 -> 781 ;
782 [label="energy <= 0.086\ngini = 0.444\nsamples = 3\nvalue = [2, 1]\nclass = good", fillcolor="#f2c09c"] ;
781 -> 782 ;
783 [label="gini = 0.5\nsamples = 2\nvalue = [1, 1]\nclass = good", fillcolor="#ffffff"] ;
782 -> 783 ;
784 [label="gini = 0.0\nsamples = 1\nvalue = [1, 0]\nclass = good", fillcolor="#e58139"] ;
782 -> 784 ;
785 [label="gini = 0.0\nsamples = 2\nvalue = [0, 2]\nclass = bad", fillcolor="#399de5"] ;
781 -> 785 ;
786 [label="gini = 0.0\nsamples = 3\nvalue = [3, 0]\nclass = good", fillcolor="#e58139"] ;
780 -> 786 ;
787 [label="gini = 0.0\nsamples = 7\nvalue = [7, 0]\nclass = good", fillcolor="#e58139"] ;
657 -> 787 ;
788 [label="danceability <= 230558.5\ngini = 0.381\nsamples = 82\nvalue = [61, 21]\nclass = good", fillcolor="#eeac7d"] ;
656 -> 788 ;
789 [label="speechiness <= 93.763\ngini = 0.223\nsamples = 47\nvalue = [41, 6]\nclass = good", fillcolor="#e99356"] ;
788 -> 789 ;
790 [label="loudness <= -8.227\ngini = 0.444\nsamples = 12\nvalue = [8, 4]\nclass = good", fillcolor="#f2c09c"] ;
789 -> 790 ;
791 [label="mode <= 0.039\ngini = 0.219\nsamples = 8\nvalue = [7, 1]\nclass = good", fillcolor="#e99355"] ;
790 -> 791 ;
792 [label="gini = 0.5\nsamples = 2\nvalue = [1, 1]\nclass = good", fillcolor="#ffffff"] ;
791 -> 792 ;
793 [label="gini = 0.0\nsamples = 6\nvalue = [6, 0]\nclass = good", fillcolor="#e58139"] ;
791 -> 793 ;
794 [label="song_popularity <= 9.5\ngini = 0.375\nsamples = 4\nvalue = [1, 3]\nclass = bad", fillcolor="#7bbeee"] ;
790 -> 794 ;
795 [label="gini = 0.5\nsamples = 2\nvalue = [1, 1]\nclass = good", fillcolor="#ffffff"] ;
794 -> 795 ;
796 [label="gini = 0.0\nsamples = 2\nvalue = [0, 2]\nclass = bad", fillcolor="#399de5"] ;
794 -> 796 ;
797 [label="liveness <= 0.056\ngini = 0.108\nsamples = 35\nvalue = [33, 2]\nclass = good", fillcolor="#e78945"] ;
789 -> 797 ;
798 [label="instrumentalness <= 0.637\ngini = 0.5\nsamples = 2\nvalue = [1, 1]\nclass = good", fillcolor="#ffffff"] ;
797 -> 798 ;
799 [label="gini = 0.0\nsamples = 1\nvalue = [1, 0]\nclass = good", fillcolor="#e58139"] ;
798 -> 799 ;
800 [label="gini = 0.0\nsamples = 1\nvalue = [0, 1]\nclass = bad", fillcolor="#399de5"] ;
798 -> 800 ;
801 [label="instrumentalness <= 0.489\ngini = 0.059\nsamples = 33\nvalue = [32, 1]\nclass = good", fillcolor="#e6853f"] ;
797 -> 801 ;
802 [label="energy <= 0.05\ngini = 0.375\nsamples = 4\nvalue = [3, 1]\nclass = good", fillcolor="#eeab7b"] ;
801 -> 802 ;
803 [label="gini = 0.0\nsamples = 1\nvalue = [0, 1]\nclass = bad", fillcolor="#399de5"] ;
802 -> 803 ;
804 [label="gini = 0.0\nsamples = 3\nvalue = [3, 0]\nclass = good", fillcolor="#e58139"] ;
802 -> 804 ;
805 [label="gini = 0.0\nsamples = 29\nvalue = [29, 0]\nclass = good", fillcolor="#e58139"] ;
801 -> 805 ;
806 [label="instrumentalness <= 0.643\ngini = 0.49\nsamples = 35\nvalue = [20, 15]\nclass = good", fillcolor="#f8e0ce"] ;
788 -> 806 ;
807 [label="energy <= 0.025\ngini = 0.415\nsamples = 17\nvalue = [5, 12]\nclass = bad", fillcolor="#8bc6f0"] ;
806 -> 807 ;
808 [label="key <= 0.873\ngini = 0.153\nsamples = 12\nvalue = [1, 11]\nclass = bad", fillcolor="#4ba6e7"] ;
807 -> 808 ;
809 [label="gini = 0.0\nsamples = 10\nvalue = [0, 10]\nclass = bad", fillcolor="#399de5"] ;
808 -> 809 ;
810 [label="speechiness <= 136.948\ngini = 0.5\nsamples = 2\nvalue = [1, 1]\nclass = good", fillcolor="#ffffff"] ;
808 -> 810 ;
811 [label="gini = 0.0\nsamples = 1\nvalue = [1, 0]\nclass = good", fillcolor="#e58139"] ;
810 -> 811 ;
812 [label="gini = 0.0\nsamples = 1\nvalue = [0, 1]\nclass = bad", fillcolor="#399de5"] ;
810 -> 812 ;
813 [label="danceability <= 266339.5\ngini = 0.32\nsamples = 5\nvalue = [4, 1]\nclass = good", fillcolor="#eca06a"] ;
807 -> 813 ;
814 [label="gini = 0.0\nsamples = 1\nvalue = [0, 1]\nclass = bad", fillcolor="#399de5"] ;
813 -> 814 ;
815 [label="gini = 0.0\nsamples = 4\nvalue = [4, 0]\nclass = good", fillcolor="#e58139"] ;
813 -> 815 ;
816 [label="mode <= 0.185\ngini = 0.278\nsamples = 18\nvalue = [15, 3]\nclass = good", fillcolor="#ea9a61"] ;
806 -> 816 ;
817 [label="gini = 0.0\nsamples = 14\nvalue = [14, 0]\nclass = good", fillcolor="#e58139"] ;
816 -> 817 ;
818 [label="loudness <= -8.726\ngini = 0.375\nsamples = 4\nvalue = [1, 3]\nclass = bad", fillcolor="#7bbeee"] ;
816 -> 818 ;
819 [label="gini = 0.0\nsamples = 1\nvalue = [1, 0]\nclass = good", fillcolor="#e58139"] ;
818 -> 819 ;
820 [label="gini = 0.0\nsamples = 3\nvalue = [0, 3]\nclass = bad", fillcolor="#399de5"] ;
818 -> 820 ;
821 [label="key <= 0.572\ngini = 0.172\nsamples = 21\nvalue = [19, 2]\nclass = good", fillcolor="#e88e4e"] ;
621 -> 821 ;
822 [label="key <= 0.519\ngini = 0.408\nsamples = 7\nvalue = [5, 2]\nclass = good", fillcolor="#efb388"] ;
821 -> 822 ;
823 [label="gini = 0.0\nsamples = 5\nvalue = [5, 0]\nclass = good", fillcolor="#e58139"] ;
822 -> 823 ;
824 [label="gini = 0.0\nsamples = 2\nvalue = [0, 2]\nclass = bad", fillcolor="#399de5"] ;
822 -> 824 ;
825 [label="gini = 0.0\nsamples = 14\nvalue = [14, 0]\nclass = good", fillcolor="#e58139"] ;
821 -> 825 ;
826 [label="speechiness <= 135.064\ngini = 0.454\nsamples = 1656\nvalue = [1079, 577]\nclass = good", fillcolor="#f3c4a3"] ;
490 -> 826 ;
827 [label="instrumentalness <= 0.441\ngini = 0.442\nsamples = 1253\nvalue = [839, 414]\nclass = good", fillcolor="#f2bf9b"] ;
826 -> 827 ;
828 [label="key <= 0.777\ngini = 0.328\nsamples = 179\nvalue = [142, 37]\nclass = good", fillcolor="#eca26d"] ;
827 -> 828 ;
829 [label="acousticness <= 4.5\ngini = 0.317\nsamples = 177\nvalue = [142, 35]\nclass = good", fillcolor="#eba06a"] ;
828 -> 829 ;
830 [label="key <= 0.5\ngini = 0.302\nsamples = 173\nvalue = [141, 32]\nclass = good", fillcolor="#eb9e66"] ;
829 -> 830 ;
831 [label="tempo <= 0.345\ngini = 0.336\nsamples = 145\nvalue = [114, 31]\nclass = good", fillcolor="#eca36f"] ;
830 -> 831 ;
832 [label="instrumentalness <= 0.411\ngini = 0.27\nsamples = 112\nvalue = [94, 18]\nclass = good", fillcolor="#ea995f"] ;
831 -> 832 ;
833 [label="mode <= 0.037\ngini = 0.328\nsamples = 87\nvalue = [69, 18]\nclass = good", fillcolor="#eca26d"] ;
832 -> 833 ;
834 [label="instrumentalness <= 0.403\ngini = 0.239\nsamples = 65\nvalue = [56, 9]\nclass = good", fillcolor="#e99559"] ;
833 -> 834 ;
835 [label="loudness <= -8.0\ngini = 0.2\nsamples = 62\nvalue = [55, 7]\nclass = good", fillcolor="#e89152"] ;
834 -> 835 ;
836 [label="danceability <= 460508.0\ngini = 0.177\nsamples = 61\nvalue = [55, 6]\nclass = good", fillcolor="#e88f4f"] ;
835 -> 836 ;
837 [label="acousticness <= 2.0\ngini = 0.153\nsamples = 60\nvalue = [55, 5]\nclass = good", fillcolor="#e78c4b"] ;
836 -> 837 ;
838 [label="gini = 0.0\nsamples = 1\nvalue = [0, 1]\nclass = bad", fillcolor="#399de5"] ;
837 -> 838 ;
839 [label="liveness <= 0.098\ngini = 0.126\nsamples = 59\nvalue = [55, 4]\nclass = good", fillcolor="#e78a47"] ;
837 -> 839 ;
840 [label="liveness <= 0.092\ngini = 0.291\nsamples = 17\nvalue = [14, 3]\nclass = good", fillcolor="#eb9c63"] ;
839 -> 840 ;
841 [label="gini = 0.0\nsamples = 11\nvalue = [11, 0]\nclass = good", fillcolor="#e58139"] ;
840 -> 841 ;
842 [label="danceability <= 223912.5\ngini = 0.5\nsamples = 6\nvalue = [3, 3]\nclass = good", fillcolor="#ffffff"] ;
840 -> 842 ;
843 [label="gini = 0.0\nsamples = 2\nvalue = [0, 2]\nclass = bad", fillcolor="#399de5"] ;
842 -> 843 ;
844 [label="liveness <= 0.093\ngini = 0.375\nsamples = 4\nvalue = [3, 1]\nclass = good", fillcolor="#eeab7b"] ;
842 -> 844 ;
845 [label="gini = 0.0\nsamples = 1\nvalue = [0, 1]\nclass = bad", fillcolor="#399de5"] ;
844 -> 845 ;
846 [label="gini = 0.0\nsamples = 3\nvalue = [3, 0]\nclass = good", fillcolor="#e58139"] ;
844 -> 846 ;
847 [label="instrumentalness <= 0.399\ngini = 0.046\nsamples = 42\nvalue = [41, 1]\nclass = good", fillcolor="#e6843e"] ;
839 -> 847 ;
848 [label="gini = 0.0\nsamples = 40\nvalue = [40, 0]\nclass = good", fillcolor="#e58139"] ;
847 -> 848 ;
849 [label="gini = 0.5\nsamples = 2\nvalue = [1, 1]\nclass = good", fillcolor="#ffffff"] ;
847 -> 849 ;
850 [label="gini = 0.0\nsamples = 1\nvalue = [0, 1]\nclass = bad", fillcolor="#399de5"] ;
836 -> 850 ;
851 [label="gini = 0.0\nsamples = 1\nvalue = [0, 1]\nclass = bad", fillcolor="#399de5"] ;
835 -> 851 ;
852 [label="danceability <= 223797.0\ngini = 0.444\nsamples = 3\nvalue = [1, 2]\nclass = bad", fillcolor="#9ccef2"] ;
834 -> 852 ;
853 [label="gini = 0.0\nsamples = 2\nvalue = [0, 2]\nclass = bad", fillcolor="#399de5"] ;
852 -> 853 ;
854 [label="gini = 0.0\nsamples = 1\nvalue = [1, 0]\nclass = good", fillcolor="#e58139"] ;
852 -> 854 ;
855 [label="danceability <= 261198.0\ngini = 0.483\nsamples = 22\nvalue = [13, 9]\nclass = good", fillcolor="#f7d8c2"] ;
833 -> 855 ;
856 [label="energy <= 0.771\ngini = 0.375\nsamples = 16\nvalue = [12, 4]\nclass = good", fillcolor="#eeab7b"] ;
855 -> 856 ;
857 [label="gini = 0.0\nsamples = 8\nvalue = [8, 0]\nclass = good", fillcolor="#e58139"] ;
856 -> 857 ;
858 [label="danceability <= 196311.5\ngini = 0.5\nsamples = 8\nvalue = [4, 4]\nclass = good", fillcolor="#ffffff"] ;
856 -> 858 ;
859 [label="gini = 0.0\nsamples = 2\nvalue = [2, 0]\nclass = good", fillcolor="#e58139"] ;
858 -> 859 ;
860 [label="liveness <= 0.188\ngini = 0.444\nsamples = 6\nvalue = [2, 4]\nclass = bad", fillcolor="#9ccef2"] ;
858 -> 860 ;
861 [label="gini = 0.0\nsamples = 4\nvalue = [0, 4]\nclass = bad", fillcolor="#399de5"] ;
860 -> 861 ;
862 [label="gini = 0.0\nsamples = 2\nvalue = [2, 0]\nclass = good", fillcolor="#e58139"] ;
860 -> 862 ;
863 [label="loudness <= -10.626\ngini = 0.278\nsamples = 6\nvalue = [1, 5]\nclass = bad", fillcolor="#61b1ea"] ;
855 -> 863 ;
